#pragma once
#include <cstdint>
#include <cstddef>
#include "ap_fixed.h"

// Source: QUANTIZED_MNISTCNN-2026-05-19-00-18-25.pth
// ap_fixed<16,7>  F=9  scale=2^9
using fixed_t = ap_fixed<16, 7, AP_RND, AP_SAT>;

// CONV1_WEIGHT shape=(16, 1, 3, 3)
#define CONV1_WEIGHT_DIM0 16
#define CONV1_WEIGHT_DIM1 1
#define CONV1_WEIGHT_DIM2 3
#define CONV1_WEIGHT_DIM3 3
static const fixed_t CONV1_WEIGHT[16][1][3][3] = {
	{
		{
			{0.19921875f, -0.30078125f, 0.01171875f},
			{0.216796875f, 0.28515625f, -0.21875f},
			{-0.03125f, -0.099609375f, 0.2109375f}
		}
	},
	{
		{
			{0.087890625f, -0.060546875f, 0.130859375f},
			{0.291015625f, 0.228515625f, -0.259765625f},
			{0.15625f, 0.009765625f, -0.2109375f}
		}
	},
	{
		{
			{-0.20703125f, -0.37109375f, -0.380859375f},
			{-0.11328125f, 0.189453125f, 0.041015625f},
			{0.2421875f, 0.38671875f, 0.09765625f}
		}
	},
	{
		{
			{0.1171875f, 0.333984375f, 0.29296875f},
			{0.130859375f, -0.2265625f, -0.037109375f},
			{-0.119140625f, -0.248046875f, -0.07421875f}
		}
	},
	{
		{
			{0.197265625f, -0.138671875f, 0.306640625f},
			{0.189453125f, 0.08984375f, 0.240234375f},
			{-0.017578125f, -0.345703125f, -0.294921875f}
		}
	},
	{
		{
			{-0.26171875f, -0.119140625f, -0.193359375f},
			{0.025390625f, 0.03125f, 0.2265625f},
			{-0.03125f, 0.154296875f, 0.36328125f}
		}
	},
	{
		{
			{0.03125f, -0.009765625f, -0.27734375f},
			{-0.1640625f, 0.125f, -0.3046875f},
			{-0.166015625f, -0.3203125f, 0.177734375f}
		}
	},
	{
		{
			{-0.458984375f, 0.111328125f, 0.30859375f},
			{-0.20703125f, 0.283203125f, 0.3046875f},
			{0.189453125f, 0.193359375f, 0.060546875f}
		}
	},
	{
		{
			{-0.087890625f, -0.255859375f, 0.37890625f},
			{-0.06640625f, 0.18359375f, 0.15234375f},
			{0.099609375f, -0.2578125f, -0.05859375f}
		}
	},
	{
		{
			{0.3984375f, 0.119140625f, -0.04296875f},
			{0.224609375f, -0.26953125f, -0.37109375f},
			{-0.208984375f, -0.365234375f, 0.0703125f}
		}
	},
	{
		{
			{0.26953125f, 0.25f, -0.33203125f},
			{-0.298828125f, 0.373046875f, -0.35546875f},
			{-0.044921875f, 0.232421875f, -0.0546875f}
		}
	},
	{
		{
			{-0.234375f, 0.28515625f, -0.259765625f},
			{0.095703125f, 0.29296875f, 0.359375f},
			{-0.3046875f, -0.2578125f, 0.009765625f}
		}
	},
	{
		{
			{0.296875f, -0.068359375f, 0.087890625f},
			{-0.263671875f, -0.103515625f, -0.13671875f},
			{0.193359375f, -0.060546875f, -0.08203125f}
		}
	},
	{
		{
			{-0.390625f, -0.068359375f, 0.220703125f},
			{-0.029296875f, -0.10546875f, 0.27734375f},
			{-0.244140625f, -0.140625f, 0.400390625f}
		}
	},
	{
		{
			{-0.20703125f, 0.021484375f, 0.111328125f},
			{0.19140625f, -0.056640625f, -0.140625f},
			{0.236328125f, -0.255859375f, -0.013671875f}
		}
	},
	{
		{
			{0.3046875f, 0.029296875f, 0.12890625f},
			{-0.34375f, 0.19921875f, -0.00390625f},
			{-0.14453125f, -0.083984375f, 0.326171875f}
		}
	}
};

// CONV1_BIAS shape=(16,)
#define CONV1_BIAS_DIM0 16
static const fixed_t CONV1_BIAS[16] = {0.2578125f, 0.025390625f, 0.2109375f, 0.216796875f, 0.23828125f, 0.267578125f, 0.2890625f, 0.140625f, 0.1796875f, -0.1875f, -0.03515625f, -0.005859375f, 0.142578125f, 0.13671875f, 0.201171875f, 0.1328125f};

// CONV2_WEIGHT shape=(32, 16, 3, 3)
#define CONV2_WEIGHT_DIM0 32
#define CONV2_WEIGHT_DIM1 16
#define CONV2_WEIGHT_DIM2 3
#define CONV2_WEIGHT_DIM3 3
static const fixed_t CONV2_WEIGHT[32][16][3][3] = {
	{
		{
			{-0.12890625f, -0.095703125f, 0.03125f},
			{-0.013671875f, 0.013671875f, -0.017578125f},
			{-0.017578125f, -0.072265625f, -0.001953125f}
		},
		{
			{0.044921875f, 0.0390625f, -0.015625f},
			{-0.080078125f, -0.03125f, 0.080078125f},
			{-0.048828125f, -0.060546875f, 0.05078125f}
		},
		{
			{-0.05078125f, -0.029296875f, -0.068359375f},
			{-0.02734375f, -0.150390625f, -0.1484375f},
			{-0.064453125f, -0.12890625f, -0.080078125f}
		},
		{
			{-0.052734375f, 0.072265625f, 0.064453125f},
			{-0.048828125f, 0.07421875f, 0.005859375f},
			{-0.009765625f, 0.05859375f, 0.00390625f}
		},
		{
			{-0.04296875f, 0.076171875f, 0.080078125f},
			{0.005859375f, 0.08984375f, -0.00390625f},
			{0.001953125f, -0.02734375f, 0.05859375f}
		},
		{
			{0.064453125f, -0.01171875f, -0.0f},
			{-0.0234375f, -0.056640625f, 0.033203125f},
			{0.0625f, -0.005859375f, 0.041015625f}
		},
		{
			{0.083984375f, -0.02734375f, -0.078125f},
			{0.015625f, 0.046875f, 0.05859375f},
			{0.10546875f, -0.052734375f, 0.0390625f}
		},
		{
			{0.08203125f, 0.07421875f, 0.10546875f},
			{-0.009765625f, 0.01953125f, 0.048828125f},
			{0.048828125f, 0.017578125f, -0.0390625f}
		},
		{
			{0.0234375f, 0.091796875f, 0.0234375f},
			{-0.029296875f, 0.02734375f, -0.015625f},
			{-0.009765625f, 0.021484375f, 0.0859375f}
		},
		{
			{-0.052734375f, 0.044921875f, 0.03515625f},
			{0.001953125f, 0.041015625f, 0.017578125f},
			{0.044921875f, 0.0625f, 0.021484375f}
		},
		{
			{-0.15625f, -0.12109375f, 0.060546875f},
			{-0.10546875f, -0.001953125f, 0.029296875f},
			{-0.03125f, 0.04296875f, 0.0625f}
		},
		{
			{-0.0546875f, 0.05078125f, 0.0703125f},
			{-0.1171875f, -0.09375f, -0.064453125f},
			{0.01171875f, -0.00390625f, -0.0390625f}
		},
		{
			{0.001953125f, 0.033203125f, -0.07421875f},
			{0.02734375f, -0.02734375f, 0.056640625f},
			{-0.033203125f, -0.05859375f, -0.015625f}
		},
		{
			{0.10546875f, 0.048828125f, 0.06640625f},
			{-0.001953125f, 0.10546875f, 0.146484375f},
			{0.11328125f, 0.076171875f, 0.10546875f}
		},
		{
			{-0.0546875f, -0.0625f, -0.0625f},
			{0.095703125f, -0.01171875f, 0.0625f},
			{0.060546875f, -0.0625f, -0.064453125f}
		},
		{
			{0.037109375f, 0.046875f, 0.078125f},
			{0.044921875f, -0.029296875f, 0.1328125f},
			{0.021484375f, -0.068359375f, 0.08203125f}
		}
	},
	{
		{
			{-0.048828125f, 0.0546875f, -0.0625f},
			{-0.013671875f, 0.0625f, 0.03515625f},
			{0.05078125f, -0.060546875f, 0.0390625f}
		},
		{
			{0.056640625f, -0.033203125f, 0.072265625f},
			{0.005859375f, -0.0625f, -0.001953125f},
			{0.0703125f, -0.0703125f, 0.048828125f}
		},
		{
			{-0.02734375f, 0.0703125f, 0.0625f},
			{-0.083984375f, -0.09765625f, -0.072265625f},
			{-0.07421875f, 0.029296875f, -0.109375f}
		},
		{
			{-0.1171875f, -0.12109375f, 0.009765625f},
			{-0.06640625f, -0.017578125f, 0.015625f},
			{-0.03125f, -0.078125f, 0.03125f}
		},
		{
			{0.01171875f, -0.1015625f, -0.076171875f},
			{0.072265625f, 0.0859375f, 0.07421875f},
			{0.0234375f, 0.009765625f, 0.09765625f}
		},
		{
			{-0.037109375f, -0.033203125f, 0.015625f},
			{0.025390625f, 0.04296875f, 0.005859375f},
			{-0.080078125f, -0.0546875f, -0.10546875f}
		},
		{
			{0.05859375f, -0.033203125f, 0.048828125f},
			{0.01953125f, -0.0625f, -0.037109375f},
			{-0.0390625f, 0.06640625f, -0.046875f}
		},
		{
			{0.0546875f, -0.01171875f, 0.115234375f},
			{-0.009765625f, 0.119140625f, 0.1171875f},
			{-0.037109375f, -0.056640625f, -0.041015625f}
		},
		{
			{-0.03125f, 0.083984375f, 0.029296875f},
			{0.005859375f, 0.0625f, 0.0078125f},
			{0.107421875f, 0.107421875f, 0.126953125f}
		},
		{
			{-0.02734375f, -0.041015625f, 0.044921875f},
			{0.064453125f, -0.015625f, 0.041015625f},
			{0.080078125f, 0.0703125f, -0.0703125f}
		},
		{
			{0.091796875f, 0.041015625f, 0.119140625f},
			{-0.013671875f, -0.046875f, 0.025390625f},
			{0.06640625f, 0.025390625f, -0.0f}
		},
		{
			{-0.037109375f, 0.03515625f, 0.078125f},
			{-0.029296875f, 0.060546875f, -0.0234375f},
			{-0.04296875f, 0.037109375f, 0.125f}
		},
		{
			{0.025390625f, -0.0703125f, 0.04296875f},
			{0.0546875f, -0.078125f, 0.033203125f},
			{-0.0f, 0.087890625f, 0.080078125f}
		},
		{
			{0.033203125f, 0.111328125f, 0.0546875f},
			{0.103515625f, 0.11328125f, 0.146484375f},
			{-0.005859375f, 0.0625f, 0.08203125f}
		},
		{
			{0.064453125f, 0.04296875f, -0.0546875f},
			{0.02734375f, -0.044921875f, 0.0625f},
			{-0.03125f, -0.0234375f, -0.0f}
		},
		{
			{0.005859375f, 0.08984375f, -0.044921875f},
			{-0.021484375f, 0.013671875f, 0.048828125f},
			{-0.0859375f, -0.072265625f, 0.080078125f}
		}
	},
	{
		{
			{-0.052734375f, -0.060546875f, 0.013671875f},
			{-0.0546875f, 0.00390625f, -0.015625f},
			{-0.00390625f, 0.10546875f, 0.029296875f}
		},
		{
			{-0.021484375f, -0.056640625f, 0.025390625f},
			{0.021484375f, 0.029296875f, -0.12109375f},
			{0.052734375f, 0.08203125f, 0.01171875f}
		},
		{
			{-0.052734375f, 0.087890625f, 0.037109375f},
			{0.08984375f, 0.015625f, 0.021484375f},
			{0.099609375f, -0.005859375f, 0.11328125f}
		},
		{
			{0.033203125f, 0.0234375f, 0.060546875f},
			{0.01953125f, 0.03515625f, 0.0078125f},
			{-0.107421875f, -0.083984375f, -0.171875f}
		},
		{
			{0.013671875f, -0.05859375f, -0.0390625f},
			{0.009765625f, -0.134765625f, -0.037109375f},
			{0.0078125f, -0.080078125f, -0.140625f}
		},
		{
			{-0.021484375f, 0.01171875f, -0.06640625f},
			{-0.044921875f, -0.056640625f, 0.072265625f},
			{-0.001953125f, 0.1171875f, 0.072265625f}
		},
		{
			{0.05859375f, 0.041015625f, 0.0546875f},
			{0.09375f, -0.00390625f, 0.005859375f},
			{-0.01171875f, -0.060546875f, 0.060546875f}
		},
		{
			{-0.134765625f, -0.080078125f, 0.02734375f},
			{-0.091796875f, -0.09375f, -0.041015625f},
			{0.0f, 0.080078125f, 0.080078125f}
		},
		{
			{0.01953125f, 0.07421875f, -0.0234375f},
			{-0.052734375f, 0.025390625f, -0.03515625f},
			{0.064453125f, -0.064453125f, -0.0078125f}
		},
		{
			{0.09765625f, 0.044921875f, 0.10546875f},
			{-0.044921875f, -0.03515625f, -0.052734375f},
			{-0.048828125f, -0.1015625f, -0.1171875f}
		},
		{
			{0.068359375f, -0.037109375f, -0.126953125f},
			{0.009765625f, -0.15625f, -0.16796875f},
			{-0.009765625f, -0.08203125f, -0.09375f}
		},
		{
			{-0.107421875f, -0.0234375f, -0.095703125f},
			{-0.087890625f, -0.115234375f, -0.125f},
			{-0.125f, 0.04296875f, 0.001953125f}
		},
		{
			{0.111328125f, 0.01953125f, -0.044921875f},
			{0.0390625f, 0.0546875f, 0.0234375f},
			{0.052734375f, -0.052734375f, 0.015625f}
		},
		{
			{0.0f, 0.03515625f, -0.03515625f},
			{0.095703125f, -0.029296875f, 0.037109375f},
			{-0.037109375f, 0.05078125f, 0.08203125f}
		},
		{
			{-0.009765625f, 0.00390625f, -0.02734375f},
			{0.087890625f, 0.099609375f, 0.083984375f},
			{-0.056640625f, -0.044921875f, -0.0546875f}
		},
		{
			{0.048828125f, -0.01953125f, 0.087890625f},
			{-0.0859375f, -0.013671875f, 0.1171875f},
			{0.041015625f, -0.0234375f, 0.064453125f}
		}
	},
	{
		{
			{-0.04296875f, 0.056640625f, -0.064453125f},
			{0.005859375f, 0.005859375f, 0.029296875f},
			{-0.00390625f, -0.03125f, 0.013671875f}
		},
		{
			{-0.052734375f, 0.0078125f, 0.02734375f},
			{-0.064453125f, 0.091796875f, 0.021484375f},
			{0.068359375f, 0.0625f, 0.044921875f}
		},
		{
			{0.09375f, 0.041015625f, -0.02734375f},
			{0.10546875f, -0.048828125f, 0.033203125f},
			{0.0f, -0.095703125f, -0.015625f}
		},
		{
			{-0.14453125f, -0.08203125f, 0.05078125f},
			{-0.083984375f, -0.064453125f, 0.056640625f},
			{0.0625f, 0.056640625f, 0.068359375f}
		},
		{
			{-0.1171875f, 0.03125f, 0.04296875f},
			{0.05859375f, -0.08203125f, -0.0f},
			{0.01953125f, 0.09375f, 0.08203125f}
		},
		{
			{0.0078125f, -0.00390625f, 0.037109375f},
			{0.109375f, -0.021484375f, 0.0234375f},
			{-0.046875f, -0.072265625f, -0.05859375f}
		},
		{
			{-0.025390625f, 0.046875f, 0.0703125f},
			{-0.03125f, -0.06640625f, 0.083984375f},
			{-0.009765625f, -0.060546875f, -0.033203125f}
		},
		{
			{0.080078125f, -0.009765625f, -0.00390625f},
			{0.09765625f, 0.078125f, -0.037109375f},
			{0.01953125f, 0.01953125f, 0.041015625f}
		},
		{
			{-0.0f, 0.03125f, -0.017578125f},
			{0.107421875f, 0.01953125f, 0.021484375f},
			{-0.0234375f, 0.05078125f, 0.07421875f}
		},
		{
			{-0.1328125f, -0.013671875f, -0.017578125f},
			{-0.001953125f, 0.0390625f, -0.056640625f},
			{0.1484375f, -0.02734375f, 0.017578125f}
		},
		{
			{-0.0390625f, -0.04296875f, -0.033203125f},
			{0.013671875f, -0.02734375f, -0.00390625f},
			{-0.00390625f, -0.02734375f, 0.07421875f}
		},
		{
			{-0.060546875f, -0.060546875f, -0.09765625f},
			{-0.076171875f, 0.033203125f, 0.095703125f},
			{0.04296875f, 0.087890625f, -0.01171875f}
		},
		{
			{-0.03125f, -0.044921875f, 0.01171875f},
			{0.02734375f, -0.078125f, -0.083984375f},
			{-0.078125f, -0.05078125f, -0.013671875f}
		},
		{
			{0.021484375f, 0.00390625f, 0.015625f},
			{-0.013671875f, 0.052734375f, -0.072265625f},
			{0.072265625f, 0.029296875f, 0.080078125f}
		},
		{
			{-0.001953125f, -0.0625f, 0.01171875f},
			{-0.048828125f, -0.017578125f, -0.013671875f},
			{-0.04296875f, 0.076171875f, -0.0234375f}
		},
		{
			{0.078125f, -0.015625f, -0.072265625f},
			{0.068359375f, 0.05078125f, 0.052734375f},
			{0.078125f, 0.107421875f, 0.08203125f}
		}
	},
	{
		{
			{0.08203125f, 0.087890625f, 0.099609375f},
			{-0.04296875f, 0.05078125f, 0.1015625f},
			{0.068359375f, 0.041015625f, -0.03515625f}
		},
		{
			{0.052734375f, 0.025390625f, 0.03515625f},
			{-0.052734375f, -0.064453125f, -0.0703125f},
			{0.03125f, -0.0078125f, 0.0078125f}
		},
		{
			{0.064453125f, 0.123046875f, 0.111328125f},
			{0.03515625f, 0.05078125f, 0.095703125f},
			{-0.013671875f, -0.015625f, -0.099609375f}
		},
		{
			{0.068359375f, -0.060546875f, -0.03125f},
			{0.037109375f, 0.103515625f, 0.080078125f},
			{0.123046875f, 0.00390625f, 0.001953125f}
		},
		{
			{0.037109375f, 0.01171875f, 0.01171875f},
			{0.107421875f, 0.091796875f, 0.09375f},
			{-0.005859375f, 0.12109375f, -0.00390625f}
		},
		{
			{-0.03125f, 0.08984375f, 0.10546875f},
			{0.05859375f, -0.0234375f, 0.052734375f},
			{0.009765625f, -0.0703125f, -0.033203125f}
		},
		{
			{0.013671875f, -0.029296875f, -0.044921875f},
			{-0.015625f, -0.01171875f, 0.013671875f},
			{0.01953125f, -0.001953125f, 0.068359375f}
		},
		{
			{-0.009765625f, 0.01953125f, -0.017578125f},
			{-0.064453125f, -0.001953125f, 0.00390625f},
			{0.02734375f, -0.0703125f, 0.021484375f}
		},
		{
			{-0.052734375f, -0.09375f, -0.06640625f},
			{0.06640625f, 0.05859375f, 0.064453125f},
			{0.041015625f, -0.0f, 0.09375f}
		},
		{
			{-0.09765625f, -0.162109375f, -0.095703125f},
			{-0.0390625f, -0.03125f, -0.06640625f},
			{0.115234375f, 0.037109375f, 0.017578125f}
		},
		{
			{0.015625f, -0.013671875f, -0.095703125f},
			{-0.10546875f, -0.076171875f, -0.0078125f},
			{0.044921875f, 0.01171875f, -0.0546875f}
		},
		{
			{0.115234375f, -0.013671875f, 0.09765625f},
			{0.0546875f, 0.02734375f, 0.12109375f},
			{0.064453125f, 0.14453125f, 0.033203125f}
		},
		{
			{0.009765625f, 0.072265625f, -0.076171875f},
			{0.00390625f, -0.03515625f, 0.05859375f},
			{0.01171875f, 0.064453125f, -0.046875f}
		},
		{
			{-0.080078125f, -0.0703125f, -0.1015625f},
			{-0.068359375f, -0.107421875f, -0.068359375f},
			{-0.076171875f, 0.03515625f, -0.06640625f}
		},
		{
			{-0.091796875f, -0.091796875f, 0.056640625f},
			{-0.033203125f, -0.044921875f, -0.005859375f},
			{0.060546875f, 0.013671875f, -0.041015625f}
		},
		{
			{0.03125f, -0.06640625f, 0.021484375f},
			{-0.00390625f, 0.1015625f, -0.03515625f},
			{-0.076171875f, 0.046875f, 0.08984375f}
		}
	},
	{
		{
			{0.060546875f, 0.03515625f, 0.04296875f},
			{0.08984375f, 0.0390625f, -0.0390625f},
			{-0.01171875f, -0.0390625f, -0.03125f}
		},
		{
			{-0.05078125f, -0.021484375f, -0.029296875f},
			{-0.10546875f, -0.09375f, 0.052734375f},
			{0.03125f, 0.01171875f, 0.0703125f}
		},
		{
			{-0.029296875f, -0.0390625f, 0.072265625f},
			{-0.0234375f, 0.068359375f, -0.025390625f},
			{0.009765625f, -0.005859375f, -0.06640625f}
		},
		{
			{0.048828125f, -0.05078125f, -0.125f},
			{-0.033203125f, 0.01171875f, -0.08203125f},
			{0.029296875f, 0.041015625f, 0.01171875f}
		},
		{
			{0.05078125f, -0.068359375f, 0.00390625f},
			{0.052734375f, 0.005859375f, 0.0234375f},
			{-0.021484375f, -0.005859375f, 0.068359375f}
		},
		{
			{-0.015625f, -0.0234375f, 0.072265625f},
			{-0.064453125f, -0.0625f, 0.02734375f},
			{-0.009765625f, -0.06640625f, -0.091796875f}
		},
		{
			{0.029296875f, -0.04296875f, 0.0625f},
			{-0.017578125f, -0.060546875f, -0.02734375f},
			{-0.025390625f, -0.048828125f, -0.037109375f}
		},
		{
			{-0.078125f, -0.021484375f, 0.08984375f},
			{0.0390625f, 0.03515625f, -0.001953125f},
			{-0.009765625f, 0.0546875f, 0.05078125f}
		},
		{
			{-0.05078125f, 0.029296875f, 0.06640625f},
			{0.099609375f, 0.009765625f, 0.0859375f},
			{0.01171875f, 0.00390625f, 0.05078125f}
		},
		{
			{0.0703125f, -0.05078125f, -0.119140625f},
			{0.0703125f, -0.072265625f, 0.0546875f},
			{0.11328125f, 0.005859375f, 0.103515625f}
		},
		{
			{-0.009765625f, 0.076171875f, 0.123046875f},
			{0.046875f, 0.115234375f, 0.0390625f},
			{-0.041015625f, 0.095703125f, 0.0703125f}
		},
		{
			{-0.017578125f, 0.0546875f, 0.01171875f},
			{0.056640625f, 0.1015625f, 0.0078125f},
			{0.0390625f, -0.02734375f, 0.017578125f}
		},
		{
			{0.048828125f, -0.052734375f, 0.056640625f},
			{-0.0546875f, -0.021484375f, -0.029296875f},
			{0.013671875f, -0.048828125f, -0.056640625f}
		},
		{
			{-0.048828125f, 0.060546875f, 0.107421875f},
			{0.078125f, 0.095703125f, -0.048828125f},
			{0.060546875f, 0.083984375f, 0.068359375f}
		},
		{
			{0.037109375f, 0.025390625f, -0.03125f},
			{-0.0f, 0.05859375f, 0.095703125f},
			{-0.0625f, 0.060546875f, -0.01953125f}
		},
		{
			{0.044921875f, 0.0859375f, 0.125f},
			{0.033203125f, 0.060546875f, 0.017578125f},
			{-0.06640625f, -0.060546875f, 0.107421875f}
		}
	},
	{
		{
			{0.04296875f, 0.05078125f, -0.025390625f},
			{-0.03125f, 0.01171875f, 0.072265625f},
			{0.060546875f, 0.111328125f, 0.0625f}
		},
		{
			{-0.0703125f, -0.03515625f, -0.0625f},
			{-0.12109375f, -0.08984375f, -0.083984375f},
			{-0.001953125f, -0.021484375f, -0.033203125f}
		},
		{
			{-0.033203125f, -0.03515625f, 0.076171875f},
			{0.072265625f, 0.083984375f, 0.12109375f},
			{0.138671875f, -0.01953125f, 0.099609375f}
		},
		{
			{0.125f, 0.150390625f, 0.0390625f},
			{-0.0234375f, -0.017578125f, -0.0078125f},
			{-0.046875f, -0.11328125f, -0.072265625f}
		},
		{
			{0.140625f, 0.150390625f, 0.009765625f},
			{-0.0234375f, -0.013671875f, -0.134765625f},
			{-0.119140625f, -0.109375f, -0.052734375f}
		},
		{
			{-0.021484375f, -0.103515625f, -0.111328125f},
			{-0.02734375f, 0.015625f, 0.08984375f},
			{0.005859375f, 0.0859375f, 0.12109375f}
		},
		{
			{-0.01171875f, 0.05859375f, 0.056640625f},
			{-0.009765625f, 0.02734375f, -0.041015625f},
			{-0.048828125f, -0.013671875f, -0.021484375f}
		},
		{
			{-0.076171875f, -0.08984375f, -0.0546875f},
			{0.01953125f, -0.087890625f, 0.00390625f},
			{-0.01953125f, -0.005859375f, -0.06640625f}
		},
		{
			{0.109375f, 0.05078125f, 0.02734375f},
			{-0.064453125f, -0.072265625f, 0.025390625f},
			{-0.029296875f, -0.017578125f, -0.078125f}
		},
		{
			{0.111328125f, 0.048828125f, 0.162109375f},
			{0.05078125f, -0.001953125f, -0.009765625f},
			{-0.123046875f, -0.14453125f, -0.029296875f}
		},
		{
			{0.017578125f, -0.041015625f, 0.08203125f},
			{0.03515625f, -0.0234375f, -0.07421875f},
			{-0.083984375f, 0.03515625f, -0.005859375f}
		},
		{
			{0.08984375f, 0.103515625f, -0.076171875f},
			{0.00390625f, -0.03125f, -0.0625f},
			{0.140625f, 0.021484375f, 0.060546875f}
		},
		{
			{-0.0546875f, 0.00390625f, -0.009765625f},
			{0.103515625f, -0.025390625f, 0.12109375f},
			{0.056640625f, -0.083984375f, 0.04296875f}
		},
		{
			{0.01953125f, -0.0390625f, -0.0625f},
			{0.056640625f, -0.048828125f, -0.0078125f},
			{0.0546875f, 0.07421875f, -0.02734375f}
		},
		{
			{-0.01171875f, 0.078125f, 0.072265625f},
			{0.04296875f, -0.046875f, 0.068359375f},
			{0.029296875f, 0.044921875f, -0.05078125f}
		},
		{
			{0.001953125f, -0.119140625f, 0.025390625f},
			{-0.017578125f, -0.03125f, 0.0546875f},
			{0.08203125f, -0.041015625f, 0.0f}
		}
	},
	{
		{
			{0.056640625f, -0.01953125f, -0.017578125f},
			{-0.0390625f, 0.080078125f, -0.005859375f},
			{0.0078125f, -0.03515625f, -0.052734375f}
		},
		{
			{-0.029296875f, 0.068359375f, -0.013671875f},
			{-0.072265625f, 0.02734375f, -0.01953125f},
			{0.0859375f, 0.009765625f, -0.029296875f}
		},
		{
			{-0.037109375f, 0.056640625f, -0.0078125f},
			{0.080078125f, 0.0625f, 0.052734375f},
			{0.03125f, -0.021484375f, -0.029296875f}
		},
		{
			{0.033203125f, -0.080078125f, -0.072265625f},
			{-0.0859375f, -0.03515625f, -0.03125f},
			{-0.009765625f, -0.107421875f, -0.01171875f}
		},
		{
			{-0.021484375f, -0.109375f, -0.041015625f},
			{-0.05078125f, -0.080078125f, -0.009765625f},
			{-0.001953125f, -0.091796875f, 0.05078125f}
		},
		{
			{-0.0390625f, -0.0703125f, -0.0390625f},
			{0.056640625f, 0.068359375f, 0.06640625f},
			{0.115234375f, 0.11328125f, 0.044921875f}
		},
		{
			{0.005859375f, -0.05859375f, 0.005859375f},
			{0.033203125f, 0.033203125f, 0.03125f},
			{-0.07421875f, -0.056640625f, -0.0703125f}
		},
		{
			{0.01171875f, -0.076171875f, 0.0234375f},
			{-0.05859375f, 0.03125f, -0.04296875f},
			{0.072265625f, 0.099609375f, 0.09375f}
		},
		{
			{-0.029296875f, -0.0859375f, -0.03515625f},
			{-0.025390625f, -0.056640625f, -0.015625f},
			{-0.03125f, -0.005859375f, 0.078125f}
		},
		{
			{0.01953125f, 0.013671875f, 0.04296875f},
			{-0.04296875f, -0.08984375f, -0.033203125f},
			{-0.11328125f, -0.01171875f, 0.068359375f}
		},
		{
			{0.083984375f, 0.115234375f, 0.0859375f},
			{0.052734375f, 0.13671875f, 0.021484375f},
			{0.134765625f, -0.01953125f, 0.12109375f}
		},
		{
			{-0.009765625f, 0.0625f, -0.078125f},
			{0.072265625f, -0.0625f, -0.08984375f},
			{0.044921875f, 0.091796875f, 0.041015625f}
		},
		{
			{-0.005859375f, 0.080078125f, -0.0234375f},
			{-0.05859375f, 0.009765625f, -0.001953125f},
			{-0.0390625f, -0.01953125f, 0.029296875f}
		},
		{
			{0.06640625f, 0.060546875f, 0.072265625f},
			{0.015625f, 0.12109375f, 0.16015625f},
			{0.142578125f, 0.146484375f, 0.080078125f}
		},
		{
			{0.08203125f, 0.005859375f, -0.00390625f},
			{0.072265625f, 0.033203125f, 0.00390625f},
			{-0.056640625f, -0.015625f, 0.029296875f}
		},
		{
			{0.015625f, 0.052734375f, 0.01953125f},
			{-0.04296875f, 0.087890625f, -0.0f},
			{-0.005859375f, -0.060546875f, -0.048828125f}
		}
	},
	{
		{
			{0.076171875f, 0.0625f, 0.087890625f},
			{-0.05859375f, -0.009765625f, -0.005859375f},
			{-0.03515625f, -0.03515625f, -0.01171875f}
		},
		{
			{-0.056640625f, 0.0234375f, 0.00390625f},
			{-0.10546875f, -0.04296875f, -0.02734375f},
			{-0.1015625f, -0.052734375f, 0.021484375f}
		},
		{
			{-0.103515625f, -0.060546875f, -0.037109375f},
			{-0.1640625f, -0.146484375f, -0.103515625f},
			{0.05078125f, -0.103515625f, -0.09765625f}
		},
		{
			{0.103515625f, -0.01953125f, 0.0390625f},
			{0.08203125f, 0.041015625f, 0.001953125f},
			{-0.037109375f, 0.033203125f, -0.07421875f}
		},
		{
			{0.029296875f, -0.05859375f, -0.0390625f},
			{-0.0546875f, -0.025390625f, -0.05859375f},
			{-0.1484375f, -0.123046875f, -0.02734375f}
		},
		{
			{-0.083984375f, -0.01953125f, 0.046875f},
			{-0.0078125f, -0.05859375f, 0.00390625f},
			{0.0390625f, 0.0234375f, 0.060546875f}
		},
		{
			{-0.056640625f, -0.04296875f, -0.013671875f},
			{0.091796875f, 0.0390625f, 0.0390625f},
			{-0.013671875f, -0.04296875f, 0.0390625f}
		},
		{
			{-0.0703125f, 0.068359375f, -0.03125f},
			{-0.064453125f, 0.04296875f, 0.025390625f},
			{0.005859375f, -0.01953125f, -0.0546875f}
		},
		{
			{0.08203125f, 0.11328125f, 0.001953125f},
			{0.056640625f, 0.1171875f, 0.1171875f},
			{0.015625f, 0.033203125f, 0.037109375f}
		},
		{
			{0.03125f, 0.01953125f, 0.00390625f},
			{-0.087890625f, -0.087890625f, -0.0390625f},
			{-0.06640625f, -0.052734375f, -0.05859375f}
		},
		{
			{-0.03515625f, 0.06640625f, 0.1171875f},
			{0.076171875f, 0.162109375f, 0.11328125f},
			{-0.140625f, -0.013671875f, 0.060546875f}
		},
		{
			{0.134765625f, 0.03125f, 0.103515625f},
			{0.08984375f, 0.181640625f, 0.07421875f},
			{-0.056640625f, -0.072265625f, 0.05078125f}
		},
		{
			{0.06640625f, 0.0546875f, -0.087890625f},
			{0.029296875f, 0.01953125f, -0.060546875f},
			{0.109375f, 0.08203125f, 0.03125f}
		},
		{
			{0.087890625f, 0.08203125f, 0.041015625f},
			{0.16015625f, 0.154296875f, 0.09765625f},
			{0.05078125f, 0.12109375f, 0.142578125f}
		},
		{
			{0.076171875f, 0.056640625f, 0.015625f},
			{0.046875f, -0.08203125f, -0.09765625f},
			{0.060546875f, 0.068359375f, 0.03515625f}
		},
		{
			{0.173828125f, 0.126953125f, 0.1328125f},
			{0.123046875f, 0.115234375f, 0.150390625f},
			{0.0859375f, 0.056640625f, 0.146484375f}
		}
	},
	{
		{
			{-0.083984375f, 0.0625f, 0.080078125f},
			{-0.080078125f, 0.05859375f, -0.01953125f},
			{-0.01953125f, 0.0546875f, -0.015625f}
		},
		{
			{-0.025390625f, 0.154296875f, 0.0703125f},
			{-0.03515625f, 0.013671875f, 0.02734375f},
			{0.07421875f, 0.068359375f, 0.021484375f}
		},
		{
			{-0.009765625f, -0.01171875f, -0.083984375f},
			{-0.0625f, -0.03515625f, 0.0546875f},
			{-0.091796875f, 0.033203125f, 0.0234375f}
		},
		{
			{-0.11328125f, -0.072265625f, 0.1015625f},
			{-0.10546875f, 0.056640625f, -0.1015625f},
			{0.041015625f, -0.048828125f, -0.029296875f}
		},
		{
			{-0.150390625f, -0.0390625f, 0.08984375f},
			{-0.009765625f, -0.09765625f, 0.0703125f},
			{-0.095703125f, 0.01953125f, -0.02734375f}
		},
		{
			{0.0078125f, -0.0625f, -0.0625f},
			{0.017578125f, 0.01171875f, 0.00390625f},
			{0.076171875f, 0.0234375f, -0.041015625f}
		},
		{
			{-0.052734375f, 0.01171875f, 0.08984375f},
			{-0.013671875f, 0.01171875f, -0.02734375f},
			{-0.103515625f, -0.029296875f, -0.03125f}
		},
		{
			{0.08984375f, 0.056640625f, -0.068359375f},
			{0.04296875f, -0.013671875f, -0.1171875f},
			{0.138671875f, -0.013671875f, -0.052734375f}
		},
		{
			{0.078125f, -0.009765625f, -0.044921875f},
			{0.142578125f, -0.03125f, -0.123046875f},
			{0.05078125f, 0.0234375f, -0.09765625f}
		},
		{
			{-0.18359375f, 0.00390625f, 0.154296875f},
			{-0.26953125f, 0.08203125f, 0.025390625f},
			{-0.19921875f, -0.03515625f, 0.021484375f}
		},
		{
			{0.095703125f, 0.107421875f, 0.173828125f},
			{0.232421875f, 0.197265625f, 0.126953125f},
			{0.17578125f, 0.123046875f, 0.05859375f}
		},
		{
			{-0.0234375f, -0.078125f, -0.03515625f},
			{0.005859375f, -0.041015625f, -0.07421875f},
			{0.021484375f, 0.10546875f, 0.0625f}
		},
		{
			{-0.185546875f, 0.080078125f, 0.158203125f},
			{-0.197265625f, -0.021484375f, 0.025390625f},
			{-0.056640625f, 0.03515625f, 0.091796875f}
		},
		{
			{0.1484375f, -0.03515625f, -0.1796875f},
			{0.115234375f, 0.015625f, -0.171875f},
			{0.1015625f, -0.046875f, -0.048828125f}
		},
		{
			{-0.095703125f, -0.03515625f, 0.015625f},
			{-0.0625f, 0.060546875f, 0.01171875f},
			{-0.05078125f, 0.05859375f, -0.0546875f}
		},
		{
			{0.080078125f, -0.068359375f, -0.056640625f},
			{0.0625f, 0.09765625f, -0.0625f},
			{0.00390625f, 0.05078125f, -0.013671875f}
		}
	},
	{
		{
			{-0.080078125f, -0.09765625f, 0.052734375f},
			{-0.017578125f, -0.015625f, 0.03515625f},
			{0.083984375f, 0.07421875f, -0.033203125f}
		},
		{
			{-0.01953125f, 0.033203125f, 0.09375f},
			{0.037109375f, -0.017578125f, 0.064453125f},
			{-0.021484375f, -0.03515625f, 0.0390625f}
		},
		{
			{0.0859375f, -0.0859375f, -0.119140625f},
			{0.060546875f, 0.03125f, -0.0546875f},
			{0.056640625f, 0.02734375f, -0.037109375f}
		},
		{
			{-0.044921875f, 0.0625f, 0.1015625f},
			{0.0390625f, -0.0546875f, -0.05078125f},
			{0.0078125f, -0.05078125f, -0.001953125f}
		},
		{
			{0.05078125f, -0.0546875f, 0.01953125f},
			{-0.05078125f, -0.01953125f, -0.05078125f},
			{0.03125f, -0.068359375f, -0.091796875f}
		},
		{
			{0.0234375f, 0.04296875f, -0.060546875f},
			{0.041015625f, -0.03515625f, -0.05078125f},
			{-0.048828125f, -0.01171875f, -0.14453125f}
		},
		{
			{0.01171875f, 0.00390625f, -0.0234375f},
			{-0.060546875f, -0.013671875f, 0.013671875f},
			{-0.048828125f, 0.060546875f, 0.0625f}
		},
		{
			{0.060546875f, 0.07421875f, 0.12109375f},
			{0.11328125f, 0.0546875f, 0.048828125f},
			{-0.033203125f, -0.064453125f, -0.119140625f}
		},
		{
			{0.01171875f, 0.12890625f, 0.07421875f},
			{0.0078125f, 0.087890625f, -0.080078125f},
			{0.091796875f, -0.0625f, -0.091796875f}
		},
		{
			{0.0234375f, 0.109375f, 0.12109375f},
			{-0.0390625f, 0.109375f, 0.076171875f},
			{0.078125f, 0.080078125f, 0.080078125f}
		},
		{
			{0.05859375f, 0.029296875f, -0.013671875f},
			{0.03125f, -0.03125f, 0.041015625f},
			{0.091796875f, 0.0703125f, -0.046875f}
		},
		{
			{-0.125f, -0.125f, -0.095703125f},
			{-0.029296875f, -0.03515625f, 0.00390625f},
			{-0.0546875f, 0.0390625f, 0.015625f}
		},
		{
			{0.009765625f, 0.0703125f, -0.01171875f},
			{-0.01171875f, -0.01171875f, 0.10546875f},
			{0.06640625f, 0.02734375f, 0.072265625f}
		},
		{
			{0.03515625f, 0.029296875f, -0.03515625f},
			{-0.01953125f, -0.01171875f, -0.083984375f},
			{-0.046875f, -0.064453125f, -0.173828125f}
		},
		{
			{0.029296875f, 0.09375f, 0.11328125f},
			{0.041015625f, -0.005859375f, 0.119140625f},
			{0.06640625f, -0.0390625f, 0.095703125f}
		},
		{
			{0.015625f, 0.037109375f, -0.13671875f},
			{0.005859375f, -0.017578125f, -0.015625f},
			{-0.103515625f, -0.02734375f, -0.08984375f}
		}
	},
	{
		{
			{0.06640625f, 0.103515625f, -0.037109375f},
			{0.119140625f, 0.126953125f, 0.076171875f},
			{-0.01171875f, 0.0859375f, 0.00390625f}
		},
		{
			{-0.041015625f, 0.02734375f, -0.046875f},
			{0.02734375f, 0.021484375f, -0.072265625f},
			{0.03125f, 0.068359375f, 0.04296875f}
		},
		{
			{0.046875f, 0.109375f, 0.13671875f},
			{0.130859375f, 0.099609375f, 0.0703125f},
			{-0.0859375f, -0.09375f, 0.046875f}
		},
		{
			{-0.0234375f, -0.087890625f, -0.0234375f},
			{0.091796875f, -0.05859375f, 0.076171875f},
			{0.033203125f, 0.107421875f, 0.00390625f}
		},
		{
			{0.0f, -0.06640625f, 0.021484375f},
			{0.05859375f, 0.009765625f, 0.068359375f},
			{0.07421875f, 0.11328125f, 0.072265625f}
		},
		{
			{-0.021484375f, 0.078125f, -0.025390625f},
			{-0.017578125f, -0.005859375f, 0.10546875f},
			{-0.0234375f, -0.001953125f, 0.0546875f}
		},
		{
			{-0.08203125f, 0.015625f, 0.017578125f},
			{-0.03125f, 0.015625f, 0.056640625f},
			{-0.0234375f, -0.041015625f, 0.0234375f}
		},
		{
			{-0.0546875f, -0.03125f, -0.072265625f},
			{-0.05859375f, -0.029296875f, 0.041015625f},
			{-0.0703125f, -0.005859375f, 0.060546875f}
		},
		{
			{-0.0234375f, -0.080078125f, -0.001953125f},
			{0.068359375f, 0.037109375f, -0.001953125f},
			{0.078125f, -0.041015625f, 0.046875f}
		},
		{
			{0.01171875f, -0.1328125f, -0.162109375f},
			{-0.0546875f, -0.029296875f, -0.0f},
			{0.052734375f, 0.015625f, -0.064453125f}
		},
		{
			{-0.01953125f, -0.02734375f, -0.10546875f},
			{0.033203125f, -0.099609375f, -0.013671875f},
			{0.0859375f, -0.0f, 0.11328125f}
		},
		{
			{-0.0390625f, -0.0625f, 0.046875f},
			{0.146484375f, 0.03125f, 0.1484375f},
			{0.087890625f, 0.099609375f, 0.076171875f}
		},
		{
			{0.072265625f, 0.0625f, -0.044921875f},
			{-0.00390625f, -0.12890625f, -0.041015625f},
			{-0.03515625f, 0.076171875f, -0.0703125f}
		},
		{
			{0.05078125f, -0.12890625f, 0.03515625f},
			{0.001953125f, -0.041015625f, -0.109375f},
			{-0.0078125f, -0.044921875f, -0.041015625f}
		},
		{
			{-0.013671875f, 0.013671875f, 0.080078125f},
			{0.0703125f, 0.08203125f, -0.05859375f},
			{0.03125f, -0.083984375f, -0.095703125f}
		},
		{
			{0.0f, -0.09765625f, -0.048828125f},
			{-0.01171875f, 0.001953125f, 0.02734375f},
			{0.056640625f, 0.005859375f, 0.033203125f}
		}
	},
	{
		{
			{0.029296875f, 0.017578125f, 0.080078125f},
			{0.01171875f, 0.076171875f, 0.10546875f},
			{-0.07421875f, 0.044921875f, 0.068359375f}
		},
		{
			{0.037109375f, -0.015625f, 0.021484375f},
			{-0.017578125f, -0.0703125f, 0.0078125f},
			{-0.06640625f, -0.076171875f, 0.06640625f}
		},
		{
			{-0.05078125f, 0.017578125f, 0.091796875f},
			{-0.095703125f, -0.140625f, -0.0625f},
			{-0.076171875f, -0.048828125f, 0.0078125f}
		},
		{
			{-0.052734375f, 0.033203125f, 0.078125f},
			{0.068359375f, -0.0390625f, -0.005859375f},
			{-0.025390625f, 0.076171875f, 0.068359375f}
		},
		{
			{-0.001953125f, 0.091796875f, -0.04296875f},
			{0.0390625f, 0.0703125f, -0.005859375f},
			{0.056640625f, 0.005859375f, 0.03125f}
		},
		{
			{0.005859375f, 0.041015625f, 0.01171875f},
			{0.001953125f, 0.060546875f, -0.052734375f},
			{-0.048828125f, -0.029296875f, -0.046875f}
		},
		{
			{-0.0625f, 0.01171875f, -0.02734375f},
			{-0.0078125f, 0.015625f, 0.08203125f},
			{0.0625f, 0.029296875f, -0.021484375f}
		},
		{
			{0.05859375f, 0.04296875f, -0.033203125f},
			{0.068359375f, -0.05859375f, -0.017578125f},
			{0.046875f, -0.02734375f, 0.021484375f}
		},
		{
			{0.1015625f, 0.08203125f, 0.015625f},
			{0.09765625f, 0.0703125f, -0.0390625f},
			{-0.017578125f, 0.041015625f, 0.08984375f}
		},
		{
			{-0.076171875f, 0.025390625f, 0.060546875f},
			{0.046875f, 0.03515625f, -0.029296875f},
			{-0.0390625f, -0.0078125f, -0.017578125f}
		},
		{
			{-0.0703125f, 0.080078125f, 0.068359375f},
			{0.0625f, 0.103515625f, 0.10546875f},
			{0.14453125f, 0.103515625f, 0.005859375f}
		},
		{
			{0.037109375f, 0.115234375f, 0.021484375f},
			{0.146484375f, 0.037109375f, -0.029296875f},
			{0.11328125f, 0.099609375f, 0.08984375f}
		},
		{
			{-0.052734375f, 0.056640625f, -0.0625f},
			{-0.08984375f, 0.02734375f, 0.01953125f},
			{0.0546875f, -0.044921875f, 0.025390625f}
		},
		{
			{-0.046875f, 0.07421875f, 0.01953125f},
			{0.00390625f, -0.013671875f, -0.0625f},
			{-0.01953125f, -0.0859375f, -0.033203125f}
		},
		{
			{0.0234375f, 0.01171875f, -0.05078125f},
			{-0.005859375f, 0.029296875f, -0.087890625f},
			{-0.04296875f, -0.03125f, -0.0703125f}
		},
		{
			{-0.01953125f, 0.005859375f, 0.060546875f},
			{0.115234375f, -0.01171875f, 0.0625f},
			{0.140625f, 0.11328125f, 0.0546875f}
		}
	},
	{
		{
			{-0.029296875f, 0.00390625f, 0.083984375f},
			{0.072265625f, 0.015625f, 0.046875f},
			{0.0234375f, 0.03515625f, 0.013671875f}
		},
		{
			{0.013671875f, 0.037109375f, 0.06640625f},
			{0.10546875f, 0.0390625f, 0.087890625f},
			{0.05078125f, -0.013671875f, 0.052734375f}
		},
		{
			{0.021484375f, 0.119140625f, 0.0625f},
			{0.056640625f, -0.02734375f, -0.029296875f},
			{-0.05859375f, -0.009765625f, -0.041015625f}
		},
		{
			{-0.0f, -0.099609375f, 0.0625f},
			{0.091796875f, -0.0078125f, 0.123046875f},
			{0.1171875f, 0.099609375f, 0.10546875f}
		},
		{
			{-0.060546875f, 0.03125f, 0.08984375f},
			{0.109375f, 0.009765625f, 0.080078125f},
			{0.02734375f, 0.060546875f, 0.0234375f}
		},
		{
			{0.080078125f, 0.046875f, 0.037109375f},
			{0.060546875f, -0.001953125f, -0.064453125f},
			{0.013671875f, 0.013671875f, -0.044921875f}
		},
		{
			{0.0625f, -0.0234375f, -0.03515625f},
			{0.021484375f, -0.03125f, -0.025390625f},
			{-0.005859375f, 0.021484375f, 0.037109375f}
		},
		{
			{0.009765625f, 0.06640625f, 0.095703125f},
			{0.009765625f, 0.099609375f, 0.087890625f},
			{0.072265625f, -0.04296875f, 0.03515625f}
		},
		{
			{-0.05078125f, -0.01171875f, 0.126953125f},
			{-0.03125f, 0.0078125f, 0.080078125f},
			{0.078125f, -0.05859375f, -0.02734375f}
		},
		{
			{-0.0546875f, -0.09375f, -0.01953125f},
			{0.015625f, 0.01953125f, 0.095703125f},
			{0.08984375f, 0.1640625f, 0.119140625f}
		},
		{
			{0.05859375f, -0.134765625f, -0.10546875f},
			{-0.16796875f, -0.08203125f, -0.0859375f},
			{0.015625f, 0.08203125f, 0.02734375f}
		},
		{
			{-0.013671875f, -0.0390625f, -0.0078125f},
			{-0.01953125f, 0.015625f, -0.0390625f},
			{-0.05859375f, -0.072265625f, -0.06640625f}
		},
		{
			{0.056640625f, 0.076171875f, -0.0f},
			{0.001953125f, -0.041015625f, -0.0625f},
			{0.0234375f, 0.0625f, 0.060546875f}
		},
		{
			{0.021484375f, 0.0078125f, -0.01953125f},
			{-0.072265625f, 0.033203125f, 0.099609375f},
			{-0.09765625f, 0.02734375f, 0.068359375f}
		},
		{
			{-0.052734375f, -0.0546875f, -0.00390625f},
			{0.0390625f, 0.01953125f, 0.05859375f},
			{0.115234375f, 0.041015625f, 0.056640625f}
		},
		{
			{-0.015625f, 0.05078125f, 0.041015625f},
			{0.025390625f, -0.076171875f, 0.01171875f},
			{-0.03515625f, -0.064453125f, -0.046875f}
		}
	},
	{
		{
			{-0.00390625f, -0.0390625f, 0.02734375f},
			{-0.12890625f, 0.025390625f, -0.0078125f},
			{-0.146484375f, -0.001953125f, 0.04296875f}
		},
		{
			{-0.2265625f, -0.12109375f, -0.037109375f},
			{-0.17578125f, -0.099609375f, -0.00390625f},
			{-0.05859375f, -0.103515625f, 0.0078125f}
		},
		{
			{0.0234375f, -0.04296875f, 0.138671875f},
			{0.025390625f, 0.0234375f, 0.0703125f},
			{0.0234375f, 0.109375f, 0.0078125f}
		},
		{
			{-0.03125f, -0.0546875f, -0.03125f},
			{-0.0078125f, 0.06640625f, -0.046875f},
			{-0.03515625f, -0.033203125f, 0.072265625f}
		},
		{
			{-0.05859375f, -0.06640625f, -0.083984375f},
			{-0.021484375f, -0.080078125f, -0.087890625f},
			{-0.076171875f, 0.04296875f, -0.033203125f}
		},
		{
			{-0.0390625f, 0.1171875f, 0.158203125f},
			{-0.0f, 0.12109375f, 0.173828125f},
			{0.1171875f, 0.025390625f, 0.138671875f}
		},
		{
			{-0.03515625f, 0.05078125f, 0.064453125f},
			{0.00390625f, 0.046875f, -0.0859375f},
			{0.0703125f, -0.072265625f, -0.119140625f}
		},
		{
			{-0.005859375f, -0.064453125f, 0.009765625f},
			{-0.109375f, 0.087890625f, 0.02734375f},
			{-0.013671875f, 0.08203125f, 0.19140625f}
		},
		{
			{-0.01171875f, 0.017578125f, 0.037109375f},
			{0.025390625f, -0.060546875f, -0.033203125f},
			{0.080078125f, 0.087890625f, -0.0234375f}
		},
		{
			{0.025390625f, 0.03125f, -0.15234375f},
			{-0.03125f, 0.033203125f, -0.091796875f},
			{0.029296875f, -0.015625f, -0.12890625f}
		},
		{
			{-0.171875f, -0.212890625f, -0.107421875f},
			{-0.26953125f, -0.234375f, -0.05859375f},
			{-0.2109375f, -0.18359375f, 0.00390625f}
		},
		{
			{-0.03125f, -0.064453125f, -0.076171875f},
			{-0.068359375f, 0.083984375f, 0.078125f},
			{-0.005859375f, -0.005859375f, 0.142578125f}
		},
		{
			{0.013671875f, -0.08984375f, -0.02734375f},
			{0.001953125f, -0.134765625f, -0.142578125f},
			{-0.052734375f, -0.07421875f, -0.1484375f}
		},
		{
			{0.08984375f, 0.11328125f, 0.123046875f},
			{0.134765625f, 0.0390625f, 0.107421875f},
			{0.138671875f, 0.046875f, 0.169921875f}
		},
		{
			{0.02734375f, -0.0390625f, -0.025390625f},
			{-0.068359375f, -0.09375f, 0.017578125f},
			{0.01171875f, 0.037109375f, -0.052734375f}
		},
		{
			{0.005859375f, 0.037109375f, 0.099609375f},
			{-0.005859375f, 0.056640625f, 0.1015625f},
			{-0.064453125f, 0.0859375f, 0.078125f}
		}
	},
	{
		{
			{0.025390625f, -0.041015625f, 0.0546875f},
			{0.087890625f, -0.0546875f, 0.0703125f},
			{0.04296875f, -0.041015625f, 0.00390625f}
		},
		{
			{0.033203125f, -0.00390625f, -0.04296875f},
			{0.05859375f, 0.0859375f, 0.0390625f},
			{0.078125f, -0.064453125f, -0.087890625f}
		},
		{
			{-0.021484375f, -0.037109375f, -0.05859375f},
			{0.05859375f, -0.09375f, -0.1015625f},
			{-0.111328125f, -0.048828125f, 0.064453125f}
		},
		{
			{0.0703125f, 0.052734375f, 0.01953125f},
			{-0.0546875f, 0.03125f, 0.09375f},
			{-0.029296875f, -0.005859375f, 0.0625f}
		},
		{
			{0.0390625f, 0.10546875f, 0.068359375f},
			{0.091796875f, 0.1015625f, 0.01953125f},
			{0.05078125f, 0.03125f, 0.080078125f}
		},
		{
			{0.033203125f, 0.03125f, -0.044921875f},
			{-0.0703125f, -0.05078125f, -0.068359375f},
			{-0.03515625f, -0.0234375f, 0.0546875f}
		},
		{
			{-0.03515625f, -0.0859375f, 0.03515625f},
			{0.015625f, 0.0234375f, -0.0f},
			{0.0546875f, -0.05859375f, 0.052734375f}
		},
		{
			{0.060546875f, 0.091796875f, 0.08203125f},
			{0.115234375f, -0.029296875f, 0.02734375f},
			{-0.064453125f, 0.013671875f, -0.064453125f}
		},
		{
			{0.021484375f, 0.00390625f, 0.052734375f},
			{-0.037109375f, 0.05078125f, 0.083984375f},
			{0.056640625f, 0.033203125f, -0.025390625f}
		},
		{
			{-0.064453125f, -0.046875f, 0.10546875f},
			{0.056640625f, 0.037109375f, -0.017578125f},
			{0.00390625f, -0.0546875f, 0.013671875f}
		},
		{
			{0.01171875f, -0.052734375f, 0.01171875f},
			{-0.06640625f, -0.0078125f, 0.107421875f},
			{0.095703125f, 0.033203125f, 0.056640625f}
		},
		{
			{0.01171875f, -0.013671875f, 0.046875f},
			{0.08984375f, 0.0703125f, 0.046875f},
			{0.0625f, 0.08984375f, 0.013671875f}
		},
		{
			{0.05859375f, -0.009765625f, 0.0546875f},
			{-0.025390625f, -0.04296875f, 0.103515625f},
			{-0.015625f, 0.095703125f, 0.0234375f}
		},
		{
			{0.013671875f, 0.037109375f, -0.0390625f},
			{0.015625f, -0.017578125f, 0.00390625f},
			{0.01171875f, -0.095703125f, -0.03515625f}
		},
		{
			{-0.01953125f, 0.0859375f, 0.05859375f},
			{0.03515625f, 0.041015625f, 0.02734375f},
			{0.052734375f, -0.005859375f, -0.078125f}
		},
		{
			{0.009765625f, -0.068359375f, -0.03125f},
			{0.021484375f, 0.00390625f, 0.060546875f},
			{-0.0625f, -0.03125f, 0.083984375f}
		}
	},
	{
		{
			{0.12890625f, 0.12109375f, 0.169921875f},
			{0.0859375f, 0.08203125f, 0.109375f},
			{0.0625f, 0.1640625f, 0.119140625f}
		},
		{
			{0.064453125f, 0.009765625f, 0.03125f},
			{0.041015625f, 0.076171875f, -0.015625f},
			{-0.11328125f, -0.015625f, -0.048828125f}
		},
		{
			{0.00390625f, -0.01171875f, 0.13671875f},
			{-0.103515625f, -0.044921875f, 0.017578125f},
			{-0.072265625f, -0.0f, 0.03515625f}
		},
		{
			{0.029296875f, -0.078125f, -0.107421875f},
			{-0.01171875f, -0.021484375f, -0.087890625f},
			{-0.037109375f, -0.06640625f, 0.001953125f}
		},
		{
			{0.111328125f, -0.0546875f, -0.09765625f},
			{-0.03125f, -0.00390625f, -0.072265625f},
			{-0.046875f, -0.02734375f, 0.0234375f}
		},
		{
			{-0.04296875f, 0.041015625f, 0.03125f},
			{-0.056640625f, 0.009765625f, 0.05078125f},
			{-0.025390625f, -0.015625f, -0.029296875f}
		},
		{
			{-0.11328125f, -0.048828125f, 0.09765625f},
			{0.0078125f, -0.06640625f, 0.0390625f},
			{-0.0703125f, -0.0859375f, 0.005859375f}
		},
		{
			{0.037109375f, -0.046875f, -0.16015625f},
			{-0.025390625f, -0.115234375f, -0.171875f},
			{0.060546875f, 0.052734375f, -0.0234375f}
		},
		{
			{0.08984375f, -0.029296875f, -0.095703125f},
			{0.005859375f, -0.015625f, -0.037109375f},
			{0.0234375f, 0.0078125f, 0.015625f}
		},
		{
			{0.01953125f, -0.009765625f, -0.041015625f},
			{-0.091796875f, -0.15234375f, -0.224609375f},
			{-0.18359375f, -0.220703125f, -0.146484375f}
		},
		{
			{0.205078125f, 0.220703125f, 0.1171875f},
			{0.25390625f, 0.22265625f, 0.12109375f},
			{0.177734375f, 0.177734375f, 0.140625f}
		},
		{
			{0.138671875f, 0.201171875f, 0.0625f},
			{0.150390625f, 0.15625f, 0.20703125f},
			{0.109375f, 0.212890625f, 0.15625f}
		},
		{
			{-0.001953125f, 0.015625f, 0.10546875f},
			{0.0f, 0.044921875f, 0.00390625f},
			{0.041015625f, 0.021484375f, 0.029296875f}
		},
		{
			{0.015625f, 0.037109375f, -0.166015625f},
			{-0.025390625f, 0.072265625f, -0.01953125f},
			{0.01953125f, 0.025390625f, 0.01953125f}
		},
		{
			{0.021484375f, -0.03125f, 0.12109375f},
			{0.017578125f, 0.00390625f, 0.0390625f},
			{-0.0625f, -0.0546875f, 0.021484375f}
		},
		{
			{0.08984375f, 0.078125f, 0.03125f},
			{0.111328125f, 0.10546875f, 0.140625f},
			{0.107421875f, 0.11328125f, 0.154296875f}
		}
	},
	{
		{
			{0.021484375f, -0.037109375f, 0.056640625f},
			{-0.044921875f, 0.06640625f, -0.0234375f},
			{-0.046875f, 0.107421875f, 0.091796875f}
		},
		{
			{-0.017578125f, 0.0078125f, 0.0625f},
			{-0.0f, -0.068359375f, 0.03515625f},
			{-0.029296875f, -0.02734375f, -0.072265625f}
		},
		{
			{0.099609375f, -0.0390625f, -0.0234375f},
			{0.060546875f, -0.021484375f, 0.0703125f},
			{-0.013671875f, -0.021484375f, 0.013671875f}
		},
		{
			{-0.005859375f, 0.044921875f, 0.033203125f},
			{0.00390625f, 0.080078125f, -0.009765625f},
			{0.009765625f, 0.078125f, -0.056640625f}
		},
		{
			{0.03515625f, -0.0234375f, 0.087890625f},
			{0.064453125f, -0.03515625f, 0.076171875f},
			{0.068359375f, 0.0f, 0.025390625f}
		},
		{
			{0.037109375f, 0.04296875f, 0.025390625f},
			{-0.060546875f, 0.0703125f, -0.052734375f},
			{0.03125f, 0.02734375f, 0.072265625f}
		},
		{
			{-0.076171875f, -0.037109375f, -0.03515625f},
			{-0.001953125f, 0.025390625f, -0.080078125f},
			{0.01171875f, 0.0f, 0.0546875f}
		},
		{
			{0.0234375f, -0.03125f, 0.025390625f},
			{0.0390625f, 0.015625f, 0.0234375f},
			{0.029296875f, -0.02734375f, -0.044921875f}
		},
		{
			{0.080078125f, -0.041015625f, -0.0f},
			{0.025390625f, 0.0703125f, -0.013671875f},
			{-0.0234375f, 0.060546875f, 0.046875f}
		},
		{
			{-0.001953125f, 0.087890625f, 0.08984375f},
			{-0.068359375f, -0.009765625f, 0.0859375f},
			{-0.015625f, -0.029296875f, -0.021484375f}
		},
		{
			{0.091796875f, 0.021484375f, 0.015625f},
			{0.08203125f, 0.099609375f, 0.12109375f},
			{0.0078125f, 0.072265625f, 0.005859375f}
		},
		{
			{0.029296875f, 0.013671875f, -0.015625f},
			{0.078125f, 0.091796875f, -0.05078125f},
			{0.076171875f, 0.095703125f, 0.046875f}
		},
		{
			{0.013671875f, 0.005859375f, 0.009765625f},
			{0.03125f, -0.068359375f, 0.0078125f},
			{0.07421875f, -0.052734375f, -0.07421875f}
		},
		{
			{-0.017578125f, -0.068359375f, -0.03515625f},
			{-0.01953125f, -0.107421875f, -0.091796875f},
			{-0.068359375f, -0.041015625f, -0.09375f}
		},
		{
			{-0.021484375f, -0.025390625f, 0.072265625f},
			{0.0859375f, 0.0625f, 0.005859375f},
			{0.0859375f, -0.048828125f, -0.095703125f}
		},
		{
			{0.03125f, -0.083984375f, 0.033203125f},
			{-0.03125f, 0.00390625f, -0.033203125f},
			{-0.0234375f, 0.125f, 0.033203125f}
		}
	},
	{
		{
			{-0.05859375f, -0.046875f, 0.033203125f},
			{0.1015625f, -0.001953125f, 0.115234375f},
			{0.029296875f, 0.0625f, 0.095703125f}
		},
		{
			{0.06640625f, 0.009765625f, 0.0859375f},
			{-0.064453125f, 0.0703125f, 0.0390625f},
			{-0.021484375f, 0.068359375f, 0.099609375f}
		},
		{
			{0.0f, -0.025390625f, -0.072265625f},
			{0.029296875f, -0.02734375f, -0.03125f},
			{0.0546875f, -0.01171875f, 0.12890625f}
		},
		{
			{0.06640625f, -0.00390625f, 0.0625f},
			{-0.052734375f, -0.037109375f, -0.09765625f},
			{-0.099609375f, 0.056640625f, -0.103515625f}
		},
		{
			{0.0390625f, -0.044921875f, 0.107421875f},
			{-0.083984375f, -0.0703125f, -0.033203125f},
			{-0.005859375f, 0.021484375f, 0.025390625f}
		},
		{
			{0.056640625f, -0.080078125f, -0.119140625f},
			{0.056640625f, -0.03125f, -0.0546875f},
			{0.14453125f, 0.0859375f, 0.087890625f}
		},
		{
			{0.0625f, -0.013671875f, 0.005859375f},
			{0.013671875f, -0.044921875f, 0.009765625f},
			{0.03515625f, -0.021484375f, -0.04296875f}
		},
		{
			{0.0546875f, -0.029296875f, -0.12109375f},
			{-0.064453125f, -0.09375f, -0.08203125f},
			{0.017578125f, 0.044921875f, -0.01171875f}
		},
		{
			{0.140625f, -0.001953125f, 0.041015625f},
			{-0.05859375f, -0.04296875f, -0.029296875f},
			{0.07421875f, 0.00390625f, 0.00390625f}
		},
		{
			{0.017578125f, 0.080078125f, 0.1015625f},
			{-0.021484375f, -0.015625f, 0.02734375f},
			{-0.158203125f, -0.080078125f, -0.06640625f}
		},
		{
			{-0.015625f, 0.1796875f, 0.126953125f},
			{0.052734375f, 0.171875f, 0.005859375f},
			{0.142578125f, 0.087890625f, 0.017578125f}
		},
		{
			{0.0859375f, 0.05859375f, 0.0234375f},
			{0.044921875f, 0.171875f, 0.0546875f},
			{0.111328125f, 0.158203125f, 0.15234375f}
		},
		{
			{-0.076171875f, -0.0078125f, 0.07421875f},
			{-0.09765625f, 0.03125f, 0.095703125f},
			{-0.0390625f, 0.01171875f, -0.013671875f}
		},
		{
			{0.046875f, -0.083984375f, -0.103515625f},
			{-0.021484375f, -0.091796875f, -0.025390625f},
			{0.068359375f, 0.037109375f, -0.080078125f}
		},
		{
			{0.087890625f, -0.05859375f, -0.021484375f},
			{-0.04296875f, 0.06640625f, 0.091796875f},
			{-0.064453125f, 0.00390625f, 0.00390625f}
		},
		{
			{0.0078125f, -0.00390625f, -0.044921875f},
			{0.09765625f, 0.021484375f, 0.072265625f},
			{0.16796875f, 0.109375f, 0.08203125f}
		}
	},
	{
		{
			{-0.0234375f, -0.1171875f, -0.068359375f},
			{-0.01171875f, -0.00390625f, -0.076171875f},
			{0.078125f, 0.09765625f, 0.0703125f}
		},
		{
			{-0.015625f, -0.095703125f, -0.12109375f},
			{0.02734375f, -0.00390625f, 0.03125f},
			{0.009765625f, -0.013671875f, 0.060546875f}
		},
		{
			{0.046875f, -0.005859375f, -0.01171875f},
			{0.005859375f, 0.1015625f, 0.052734375f},
			{0.115234375f, 0.060546875f, 0.029296875f}
		},
		{
			{-0.0625f, -0.09375f, 0.0078125f},
			{-0.044921875f, 0.025390625f, -0.001953125f},
			{-0.0546875f, 0.02734375f, -0.109375f}
		},
		{
			{0.013671875f, -0.09765625f, -0.08203125f},
			{-0.056640625f, -0.123046875f, -0.076171875f},
			{-0.00390625f, -0.109375f, -0.115234375f}
		},
		{
			{-0.0546875f, 0.033203125f, -0.107421875f},
			{0.005859375f, -0.001953125f, 0.029296875f},
			{0.09375f, 0.0859375f, 0.09375f}
		},
		{
			{0.099609375f, 0.0703125f, 0.0390625f},
			{0.0234375f, 0.0546875f, 0.03515625f},
			{-0.037109375f, 0.0546875f, 0.04296875f}
		},
		{
			{-0.02734375f, -0.0234375f, -0.064453125f},
			{0.044921875f, -0.12109375f, -0.123046875f},
			{0.07421875f, -0.046875f, -0.060546875f}
		},
		{
			{0.0859375f, 0.05859375f, 0.078125f},
			{-0.01953125f, 0.0390625f, -0.076171875f},
			{-0.08984375f, 0.03515625f, -0.08984375f}
		},
		{
			{-0.107421875f, -0.08984375f, -0.0625f},
			{-0.150390625f, -0.056640625f, -0.080078125f},
			{-0.126953125f, -0.037109375f, -0.09375f}
		},
		{
			{-0.041015625f, 0.001953125f, -0.015625f},
			{-0.037109375f, -0.05859375f, -0.171875f},
			{-0.05078125f, -0.072265625f, -0.013671875f}
		},
		{
			{-0.115234375f, -0.125f, -0.05859375f},
			{0.005859375f, 0.0078125f, -0.0703125f},
			{-0.02734375f, 0.041015625f, 0.017578125f}
		},
		{
			{0.0234375f, 0.0703125f, 0.05078125f},
			{0.025390625f, -0.044921875f, -0.01171875f},
			{0.02734375f, 0.046875f, -0.0234375f}
		},
		{
			{0.072265625f, -0.046875f, -0.0078125f},
			{-0.0078125f, -0.07421875f, 0.013671875f},
			{-0.015625f, -0.068359375f, -0.021484375f}
		},
		{
			{-0.04296875f, 0.03125f, 0.05859375f},
			{0.07421875f, -0.060546875f, -0.005859375f},
			{0.01171875f, 0.015625f, 0.033203125f}
		},
		{
			{-0.072265625f, -0.09765625f, -0.072265625f},
			{-0.029296875f, -0.10546875f, -0.0078125f},
			{0.068359375f, -0.0078125f, -0.033203125f}
		}
	},
	{
		{
			{0.0546875f, -0.001953125f, -0.01171875f},
			{0.076171875f, 0.046875f, 0.06640625f},
			{-0.005859375f, 0.048828125f, -0.05078125f}
		},
		{
			{0.03515625f, 0.015625f, -0.0390625f},
			{-0.03125f, 0.046875f, -0.04296875f},
			{0.07421875f, -0.0390625f, 0.00390625f}
		},
		{
			{-0.052734375f, -0.015625f, -0.037109375f},
			{-0.052734375f, -0.029296875f, -0.046875f},
			{-0.123046875f, -0.046875f, -0.1171875f}
		},
		{
			{0.08203125f, 0.078125f, -0.037109375f},
			{0.009765625f, -0.021484375f, 0.134765625f},
			{0.0546875f, 0.138671875f, 0.1328125f}
		},
		{
			{-0.046875f, -0.033203125f, -0.033203125f},
			{0.021484375f, 0.095703125f, 0.01171875f},
			{-0.025390625f, 0.087890625f, 0.00390625f}
		},
		{
			{-0.046875f, -0.017578125f, 0.10546875f},
			{-0.0546875f, 0.029296875f, -0.087890625f},
			{-0.109375f, -0.125f, -0.009765625f}
		},
		{
			{0.0390625f, -0.05859375f, 0.01953125f},
			{-0.0625f, 0.033203125f, 0.060546875f},
			{0.091796875f, -0.041015625f, 0.017578125f}
		},
		{
			{-0.06640625f, 0.1015625f, 0.013671875f},
			{0.029296875f, -0.00390625f, 0.12109375f},
			{0.091796875f, 0.03515625f, -0.08984375f}
		},
		{
			{-0.037109375f, 0.025390625f, 0.04296875f},
			{-0.01171875f, 0.126953125f, 0.140625f},
			{0.029296875f, -0.0f, -0.06640625f}
		},
		{
			{0.025390625f, 0.0f, 0.033203125f},
			{0.08203125f, 0.125f, 0.109375f},
			{0.0625f, 0.001953125f, 0.1015625f}
		},
		{
			{0.05078125f, -0.083984375f, -0.05078125f},
			{-0.1015625f, -0.005859375f, -0.12890625f},
			{-0.09765625f, -0.00390625f, -0.064453125f}
		},
		{
			{-0.02734375f, 0.03515625f, 0.083984375f},
			{0.095703125f, 0.08984375f, 0.046875f},
			{-0.00390625f, -0.00390625f, -0.0625f}
		},
		{
			{-0.017578125f, 0.041015625f, -0.0859375f},
			{0.078125f, -0.0390625f, -0.046875f},
			{-0.025390625f, 0.0859375f, 0.115234375f}
		},
		{
			{-0.025390625f, -0.017578125f, -0.056640625f},
			{0.06640625f, -0.05859375f, 0.015625f},
			{-0.103515625f, -0.072265625f, -0.111328125f}
		},
		{
			{0.044921875f, -0.037109375f, -0.041015625f},
			{0.072265625f, 0.021484375f, 0.080078125f},
			{0.07421875f, 0.03515625f, 0.04296875f}
		},
		{
			{-0.021484375f, 0.091796875f, 0.013671875f},
			{0.052734375f, -0.03125f, 0.095703125f},
			{-0.06640625f, -0.03515625f, 0.091796875f}
		}
	},
	{
		{
			{-0.103515625f, -0.01953125f, -0.0078125f},
			{-0.080078125f, 0.095703125f, -0.01953125f},
			{0.03515625f, 0.099609375f, 0.044921875f}
		},
		{
			{0.0703125f, 0.1484375f, 0.13671875f},
			{0.123046875f, 0.09375f, -0.009765625f},
			{0.162109375f, 0.048828125f, -0.048828125f}
		},
		{
			{-0.001953125f, 0.072265625f, -0.08203125f},
			{-0.025390625f, -0.033203125f, -0.150390625f},
			{-0.072265625f, -0.0546875f, -0.0625f}
		},
		{
			{-0.08203125f, 0.0390625f, -0.03125f},
			{-0.0546875f, 0.09375f, -0.009765625f},
			{0.048828125f, 0.021484375f, -0.03515625f}
		},
		{
			{-0.083984375f, 0.09375f, 0.044921875f},
			{-0.013671875f, 0.0078125f, 0.078125f},
			{0.078125f, -0.00390625f, 0.0859375f}
		},
		{
			{0.166015625f, 0.125f, -0.046875f},
			{0.083984375f, -0.076171875f, -0.189453125f},
			{0.01171875f, -0.11328125f, -0.134765625f}
		},
		{
			{-0.076171875f, 0.05078125f, 0.0234375f},
			{-0.130859375f, -0.0703125f, 0.017578125f},
			{-0.099609375f, 0.02734375f, 0.0703125f}
		},
		{
			{0.1328125f, 0.05859375f, 0.140625f},
			{0.162109375f, 0.14453125f, -0.0546875f},
			{0.1328125f, 0.03515625f, -0.140625f}
		},
		{
			{-0.04296875f, 0.078125f, 0.01953125f},
			{0.09765625f, 0.01953125f, -0.052734375f},
			{0.033203125f, -0.087890625f, -0.125f}
		},
		{
			{-0.232421875f, 0.203125f, 0.068359375f},
			{0.001953125f, 0.138671875f, 0.205078125f},
			{0.1796875f, 0.109375f, 0.099609375f}
		},
		{
			{0.138671875f, 0.103515625f, 0.060546875f},
			{0.06640625f, 0.048828125f, 0.046875f},
			{0.150390625f, 0.125f, -0.02734375f}
		},
		{
			{-0.0625f, -0.095703125f, 0.015625f},
			{-0.115234375f, -0.14453125f, -0.099609375f},
			{-0.029296875f, -0.05078125f, -0.09765625f}
		},
		{
			{-0.056640625f, -0.021484375f, -0.021484375f},
			{-0.0625f, 0.001953125f, 0.103515625f},
			{-0.021484375f, 0.12890625f, 0.119140625f}
		},
		{
			{0.109375f, 0.123046875f, -0.0390625f},
			{0.123046875f, 0.07421875f, -0.123046875f},
			{0.109375f, -0.052734375f, -0.10546875f}
		},
		{
			{0.01171875f, -0.017578125f, -0.009765625f},
			{0.111328125f, -0.00390625f, -0.005859375f},
			{0.056640625f, 0.064453125f, 0.02734375f}
		},
		{
			{0.001953125f, -0.08984375f, 0.001953125f},
			{0.044921875f, -0.048828125f, -0.142578125f},
			{-0.037109375f, -0.142578125f, -0.10546875f}
		}
	},
	{
		{
			{-0.02734375f, 0.041015625f, 0.056640625f},
			{0.060546875f, -0.001953125f, 0.0859375f},
			{0.11328125f, -0.017578125f, 0.109375f}
		},
		{
			{-0.076171875f, -0.13671875f, 0.02734375f},
			{0.009765625f, -0.029296875f, -0.076171875f},
			{0.080078125f, -0.0f, 0.0390625f}
		},
		{
			{0.025390625f, 0.080078125f, 0.005859375f},
			{0.099609375f, 0.052734375f, -0.021484375f},
			{0.060546875f, 0.06640625f, 0.1015625f}
		},
		{
			{0.015625f, -0.087890625f, -0.12109375f},
			{-0.072265625f, 0.021484375f, -0.033203125f},
			{0.0390625f, -0.029296875f, 0.00390625f}
		},
		{
			{-0.013671875f, -0.0859375f, -0.1328125f},
			{0.041015625f, 0.0625f, -0.005859375f},
			{0.0546875f, 0.0390625f, -0.01171875f}
		},
		{
			{0.013671875f, 0.07421875f, -0.017578125f},
			{0.080078125f, 0.046875f, -0.0703125f},
			{0.1015625f, -0.0546875f, 0.095703125f}
		},
		{
			{0.00390625f, 0.0390625f, 0.0234375f},
			{0.0703125f, -0.04296875f, 0.013671875f},
			{-0.052734375f, 0.076171875f, -0.02734375f}
		},
		{
			{-0.091796875f, -0.041015625f, -0.021484375f},
			{-0.109375f, 0.017578125f, -0.015625f},
			{0.0546875f, -0.0625f, 0.0703125f}
		},
		{
			{0.01171875f, 0.0546875f, -0.009765625f},
			{0.05859375f, 0.076171875f, 0.046875f},
			{0.091796875f, 0.017578125f, -0.025390625f}
		},
		{
			{-0.111328125f, -0.087890625f, -0.0f},
			{-0.01953125f, -0.119140625f, -0.015625f},
			{0.0078125f, 0.02734375f, 0.009765625f}
		},
		{
			{0.021484375f, 0.078125f, 0.115234375f},
			{0.0234375f, 0.05859375f, 0.056640625f},
			{-0.04296875f, -0.025390625f, 0.09765625f}
		},
		{
			{0.08203125f, -0.0078125f, -0.0859375f},
			{-0.052734375f, -0.001953125f, -0.025390625f},
			{0.04296875f, 0.052734375f, -0.068359375f}
		},
		{
			{0.083984375f, 0.11328125f, -0.03125f},
			{0.01171875f, -0.033203125f, -0.072265625f},
			{-0.064453125f, -0.078125f, -0.048828125f}
		},
		{
			{-0.072265625f, -0.087890625f, -0.06640625f},
			{0.044921875f, -0.083984375f, -0.068359375f},
			{0.03515625f, 0.02734375f, -0.013671875f}
		},
		{
			{0.01171875f, -0.0625f, 0.05859375f},
			{0.044921875f, 0.044921875f, 0.064453125f},
			{0.00390625f, 0.103515625f, 0.05078125f}
		},
		{
			{0.078125f, 0.048828125f, 0.044921875f},
			{0.09375f, -0.064453125f, 0.033203125f},
			{0.08984375f, 0.015625f, 0.1015625f}
		}
	},
	{
		{
			{0.0859375f, 0.017578125f, 0.12890625f},
			{-0.05859375f, -0.064453125f, 0.087890625f},
			{-0.201171875f, -0.12109375f, 0.029296875f}
		},
		{
			{-0.064453125f, 0.080078125f, -0.001953125f},
			{-0.0546875f, -0.009765625f, -0.037109375f},
			{-0.078125f, -0.060546875f, -0.076171875f}
		},
		{
			{-0.142578125f, -0.07421875f, 0.0390625f},
			{-0.1484375f, -0.171875f, -0.171875f},
			{0.025390625f, -0.130859375f, -0.123046875f}
		},
		{
			{0.11328125f, 0.103515625f, -0.041015625f},
			{0.1328125f, 0.12890625f, 0.052734375f},
			{0.03515625f, 0.06640625f, -0.01171875f}
		},
		{
			{0.041015625f, -0.017578125f, -0.017578125f},
			{0.021484375f, 0.0859375f, 0.1484375f},
			{0.01171875f, 0.03515625f, -0.015625f}
		},
		{
			{-0.01953125f, 0.078125f, 0.03125f},
			{-0.10546875f, -0.103515625f, -0.0f},
			{-0.091796875f, -0.01171875f, 0.005859375f}
		},
		{
			{0.04296875f, 0.07421875f, -0.080078125f},
			{0.0625f, -0.0234375f, -0.05859375f},
			{0.103515625f, 0.021484375f, 0.01953125f}
		},
		{
			{-0.09375f, 0.05078125f, 0.111328125f},
			{-0.052734375f, -0.1171875f, -0.05078125f},
			{-0.18359375f, -0.11328125f, 0.064453125f}
		},
		{
			{0.046875f, 0.017578125f, 0.0546875f},
			{0.1015625f, 0.138671875f, 0.076171875f},
			{0.06640625f, 0.109375f, 0.08203125f}
		},
		{
			{0.06640625f, 0.025390625f, 0.0234375f},
			{0.064453125f, -0.005859375f, -0.080078125f},
			{0.001953125f, 0.03125f, 0.029296875f}
		},
		{
			{0.083984375f, 0.09765625f, 0.142578125f},
			{0.083984375f, 0.123046875f, 0.14453125f},
			{-0.142578125f, -0.0390625f, 0.169921875f}
		},
		{
			{0.14453125f, 0.1015625f, 0.0703125f},
			{0.126953125f, 0.091796875f, 0.18359375f},
			{0.044921875f, 0.00390625f, 0.11328125f}
		},
		{
			{0.0625f, -0.0234375f, -0.0625f},
			{-0.013671875f, -0.046875f, 0.03125f},
			{0.068359375f, -0.015625f, 0.072265625f}
		},
		{
			{-0.076171875f, -0.0234375f, 0.064453125f},
			{0.0546875f, 0.1171875f, 0.0625f},
			{0.06640625f, 0.080078125f, 0.140625f}
		},
		{
			{-0.068359375f, -0.10546875f, -0.03125f},
			{-0.080078125f, -0.033203125f, -0.00390625f},
			{-0.041015625f, 0.04296875f, -0.046875f}
		},
		{
			{0.193359375f, 0.197265625f, 0.173828125f},
			{0.056640625f, 0.08203125f, 0.1328125f},
			{0.130859375f, 0.1328125f, 0.119140625f}
		}
	},
	{
		{
			{0.08984375f, -0.044921875f, -0.01953125f},
			{0.048828125f, -0.01171875f, -0.005859375f},
			{0.03515625f, -0.005859375f, -0.083984375f}
		},
		{
			{0.013671875f, 0.015625f, 0.0625f},
			{-0.015625f, -0.060546875f, 0.005859375f},
			{-0.015625f, 0.025390625f, 0.052734375f}
		},
		{
			{0.029296875f, -0.037109375f, -0.013671875f},
			{0.03515625f, 0.00390625f, -0.052734375f},
			{0.001953125f, 0.068359375f, -0.080078125f}
		},
		{
			{0.033203125f, -0.125f, -0.169921875f},
			{-0.0390625f, -0.16015625f, -0.09765625f},
			{-0.080078125f, -0.095703125f, -0.087890625f}
		},
		{
			{-0.083984375f, -0.12890625f, -0.189453125f},
			{-0.07421875f, -0.044921875f, -0.13671875f},
			{-0.041015625f, -0.05859375f, -0.00390625f}
		},
		{
			{-0.056640625f, -0.052734375f, 0.029296875f},
			{0.033203125f, 0.0078125f, 0.05859375f},
			{0.095703125f, 0.021484375f, -0.001953125f}
		},
		{
			{0.052734375f, 0.017578125f, 0.08984375f},
			{-0.056640625f, 0.0859375f, 0.03515625f},
			{0.041015625f, 0.046875f, 0.05859375f}
		},
		{
			{-0.037109375f, -0.052734375f, -0.001953125f},
			{0.0625f, 0.103515625f, 0.162109375f},
			{0.07421875f, 0.015625f, 0.06640625f}
		},
		{
			{0.03125f, 0.076171875f, 0.0390625f},
			{0.01953125f, 0.078125f, 0.0625f},
			{0.07421875f, 0.01953125f, -0.025390625f}
		},
		{
			{0.03125f, -0.056640625f, -0.130859375f},
			{0.03125f, 0.017578125f, 0.021484375f},
			{-0.001953125f, 0.015625f, 0.048828125f}
		},
		{
			{0.029296875f, -0.048828125f, -0.09375f},
			{-0.00390625f, -0.12109375f, -0.150390625f},
			{0.0f, -0.09375f, -0.09375f}
		},
		{
			{-0.04296875f, -0.05078125f, 0.03515625f},
			{-0.095703125f, -0.046875f, 0.005859375f},
			{-0.025390625f, -0.095703125f, -0.0f}
		},
		{
			{0.109375f, 0.046875f, -0.04296875f},
			{0.103515625f, 0.04296875f, -0.06640625f},
			{0.04296875f, 0.025390625f, 0.03125f}
		},
		{
			{0.0859375f, 0.09765625f, 0.076171875f},
			{0.095703125f, 0.087890625f, 0.1015625f},
			{-0.01953125f, 0.0546875f, 0.078125f}
		},
		{
			{-0.033203125f, -0.01171875f, -0.05078125f},
			{0.078125f, -0.005859375f, -0.021484375f},
			{-0.05078125f, 0.03515625f, 0.025390625f}
		},
		{
			{-0.05859375f, 0.021484375f, 0.1640625f},
			{-0.1171875f, 0.087890625f, 0.001953125f},
			{-0.107421875f, -0.03125f, 0.1328125f}
		}
	},
	{
		{
			{-0.037109375f, -0.07421875f, 0.05859375f},
			{-0.11328125f, 0.060546875f, 0.0546875f},
			{-0.107421875f, 0.05078125f, -0.080078125f}
		},
		{
			{0.017578125f, 0.03515625f, 0.07421875f},
			{-0.029296875f, 0.08203125f, -0.029296875f},
			{-0.0703125f, 0.08203125f, 0.05859375f}
		},
		{
			{0.005859375f, -0.048828125f, -0.005859375f},
			{0.017578125f, -0.115234375f, -0.0625f},
			{0.0390625f, -0.04296875f, -0.09375f}
		},
		{
			{0.0078125f, -0.052734375f, -0.01953125f},
			{0.013671875f, 0.056640625f, -0.0f},
			{0.0546875f, 0.02734375f, -0.05078125f}
		},
		{
			{0.037109375f, 0.009765625f, 0.021484375f},
			{0.0859375f, 0.0859375f, 0.009765625f},
			{-0.029296875f, 0.078125f, 0.068359375f}
		},
		{
			{0.068359375f, -0.015625f, 0.005859375f},
			{0.0f, 0.041015625f, 0.046875f},
			{0.078125f, 0.02734375f, -0.076171875f}
		},
		{
			{-0.017578125f, 0.07421875f, 0.015625f},
			{-0.025390625f, 0.064453125f, -0.064453125f},
			{-0.037109375f, 0.0078125f, -0.0078125f}
		},
		{
			{-0.056640625f, -0.048828125f, 0.076171875f},
			{0.05859375f, -0.052734375f, 0.04296875f},
			{-0.048828125f, 0.08984375f, 0.048828125f}
		},
		{
			{0.015625f, 0.0390625f, 0.05078125f},
			{0.03125f, 0.107421875f, 0.1171875f},
			{-0.025390625f, 0.0859375f, 0.107421875f}
		},
		{
			{0.05859375f, -0.07421875f, -0.0234375f},
			{-0.072265625f, 0.0625f, 0.0f},
			{0.064453125f, -0.0390625f, 0.048828125f}
		},
		{
			{0.009765625f, 0.11328125f, 0.064453125f},
			{0.001953125f, 0.033203125f, -0.03515625f},
			{0.0390625f, 0.072265625f, 0.123046875f}
		},
		{
			{-0.0390625f, 0.06640625f, 0.060546875f},
			{0.046875f, 0.015625f, 0.06640625f},
			{-0.013671875f, -0.033203125f, -0.02734375f}
		},
		{
			{-0.021484375f, 0.037109375f, -0.041015625f},
			{-0.078125f, -0.029296875f, -0.068359375f},
			{-0.078125f, 0.05078125f, 0.068359375f}
		},
		{
			{0.033203125f, 0.048828125f, 0.052734375f},
			{0.1171875f, 0.015625f, 0.0234375f},
			{0.0703125f, -0.01171875f, -0.017578125f}
		},
		{
			{-0.08984375f, -0.015625f, -0.01171875f},
			{-0.0234375f, 0.052734375f, 0.05859375f},
			{-0.06640625f, 0.0078125f, 0.037109375f}
		},
		{
			{0.001953125f, 0.021484375f, 0.0625f},
			{-0.044921875f, -0.033203125f, 0.091796875f},
			{-0.017578125f, -0.03515625f, -0.041015625f}
		}
	},
	{
		{
			{0.046875f, -0.037109375f, 0.037109375f},
			{-0.01171875f, 0.060546875f, 0.01953125f},
			{-0.07421875f, -0.091796875f, -0.10546875f}
		},
		{
			{0.015625f, -0.029296875f, -0.0234375f},
			{-0.0546875f, -0.005859375f, -0.009765625f},
			{-0.0859375f, -0.123046875f, -0.046875f}
		},
		{
			{-0.03515625f, -0.0078125f, -0.03515625f},
			{-0.083984375f, -0.095703125f, -0.125f},
			{-0.13671875f, -0.0546875f, -0.115234375f}
		},
		{
			{0.021484375f, 0.1015625f, 0.111328125f},
			{0.095703125f, 0.13671875f, 0.0078125f},
			{-0.00390625f, 0.001953125f, 0.021484375f}
		},
		{
			{0.109375f, 0.078125f, -0.005859375f},
			{0.115234375f, 0.048828125f, 0.009765625f},
			{-0.001953125f, 0.01171875f, 0.013671875f}
		},
		{
			{-0.056640625f, 0.0234375f, 0.044921875f},
			{-0.03515625f, -0.00390625f, -0.048828125f},
			{-0.099609375f, -0.091796875f, -0.064453125f}
		},
		{
			{0.03515625f, -0.033203125f, 0.029296875f},
			{0.0859375f, -0.04296875f, 0.041015625f},
			{0.044921875f, 0.0546875f, -0.056640625f}
		},
		{
			{0.091796875f, 0.07421875f, 0.060546875f},
			{0.068359375f, 0.048828125f, 0.015625f},
			{-0.083984375f, -0.083984375f, 0.015625f}
		},
		{
			{0.115234375f, 0.087890625f, 0.052734375f},
			{0.07421875f, -0.005859375f, 0.0078125f},
			{0.04296875f, -0.060546875f, 0.064453125f}
		},
		{
			{0.09375f, 0.083984375f, 0.130859375f},
			{0.08203125f, 0.03515625f, 0.041015625f},
			{0.04296875f, 0.0390625f, 0.005859375f}
		},
		{
			{0.0f, -0.099609375f, 0.009765625f},
			{0.025390625f, -0.02734375f, -0.0546875f},
			{-0.021484375f, -0.015625f, 0.029296875f}
		},
		{
			{0.12109375f, 0.1015625f, -0.001953125f},
			{0.02734375f, 0.072265625f, -0.025390625f},
			{-0.03125f, -0.083984375f, -0.078125f}
		},
		{
			{-0.091796875f, 0.064453125f, 0.056640625f},
			{0.1015625f, 0.103515625f, 0.009765625f},
			{-0.029296875f, 0.03125f, 0.0625f}
		},
		{
			{-0.04296875f, 0.0234375f, 0.078125f},
			{-0.0703125f, 0.005859375f, -0.08203125f},
			{0.05078125f, -0.05859375f, -0.056640625f}
		},
		{
			{0.037109375f, -0.0390625f, 0.033203125f},
			{-0.021484375f, -0.037109375f, -0.1171875f},
			{0.052734375f, 0.037109375f, 0.0390625f}
		},
		{
			{0.08203125f, 0.041015625f, 0.0703125f},
			{-0.07421875f, 0.056640625f, 0.13671875f},
			{-0.080078125f, -0.05859375f, 0.08203125f}
		}
	},
	{
		{
			{0.15625f, 0.1484375f, 0.099609375f},
			{-0.017578125f, 0.041015625f, 0.01953125f},
			{-0.060546875f, -0.115234375f, 0.00390625f}
		},
		{
			{0.01953125f, 0.1015625f, 0.10546875f},
			{-0.03515625f, 0.078125f, 0.0859375f},
			{-0.033203125f, 0.015625f, 0.078125f}
		},
		{
			{-0.009765625f, 0.037109375f, 0.11328125f},
			{-0.126953125f, -0.08984375f, -0.07421875f},
			{-0.05859375f, -0.1171875f, -0.044921875f}
		},
		{
			{0.052734375f, -0.03125f, -0.056640625f},
			{0.0234375f, 0.130859375f, 0.0234375f},
			{0.115234375f, 0.078125f, 0.099609375f}
		},
		{
			{0.115234375f, 0.09765625f, 0.0390625f},
			{0.01953125f, 0.072265625f, 0.015625f},
			{-0.0390625f, -0.037109375f, 0.1171875f}
		},
		{
			{0.05859375f, -0.013671875f, 0.1015625f},
			{-0.146484375f, 0.001953125f, 0.017578125f},
			{-0.029296875f, -0.091796875f, -0.064453125f}
		},
		{
			{0.033203125f, -0.04296875f, 0.056640625f},
			{0.04296875f, -0.029296875f, 0.0390625f},
			{0.0859375f, -0.0f, 0.08203125f}
		},
		{
			{-0.09375f, -0.025390625f, 0.12109375f},
			{-0.138671875f, -0.1171875f, -0.0078125f},
			{-0.134765625f, -0.046875f, 0.111328125f}
		},
		{
			{0.044921875f, 0.064453125f, 0.029296875f},
			{0.00390625f, 0.0234375f, 0.02734375f},
			{0.0546875f, 0.005859375f, -0.005859375f}
		},
		{
			{-0.025390625f, -0.193359375f, -0.220703125f},
			{0.009765625f, 0.001953125f, 0.02734375f},
			{-0.013671875f, 0.033203125f, 0.03515625f}
		},
		{
			{0.080078125f, 0.0546875f, -0.0078125f},
			{0.044921875f, 0.095703125f, 0.060546875f},
			{0.0390625f, 0.0078125f, 0.009765625f}
		},
		{
			{0.15625f, 0.1171875f, 0.08984375f},
			{0.0f, 0.11328125f, 0.126953125f},
			{0.041015625f, -0.1171875f, 0.025390625f}
		},
		{
			{0.05859375f, -0.08984375f, -0.07421875f},
			{-0.009765625f, 0.01953125f, 0.041015625f},
			{-0.021484375f, -0.025390625f, 0.04296875f}
		},
		{
			{-0.06640625f, 0.056640625f, 0.12890625f},
			{-0.087890625f, 0.013671875f, 0.10546875f},
			{-0.02734375f, 0.0625f, 0.107421875f}
		},
		{
			{0.02734375f, 0.048828125f, -0.01171875f},
			{0.07421875f, 0.029296875f, 0.0234375f},
			{0.0078125f, 0.046875f, 0.0078125f}
		},
		{
			{0.099609375f, 0.09375f, 0.0625f},
			{0.021484375f, 0.056640625f, 0.1015625f},
			{0.064453125f, 0.095703125f, 0.07421875f}
		}
	},
	{
		{
			{-0.04296875f, 0.095703125f, -0.005859375f},
			{-0.0234375f, 0.0234375f, 0.017578125f},
			{0.013671875f, -0.046875f, -0.083984375f}
		},
		{
			{0.001953125f, 0.099609375f, 0.080078125f},
			{0.025390625f, 0.048828125f, 0.021484375f},
			{-0.09765625f, -0.009765625f, 0.021484375f}
		},
		{
			{0.0625f, -0.009765625f, -0.091796875f},
			{-0.1328125f, -0.177734375f, -0.111328125f},
			{-0.095703125f, -0.13671875f, -0.140625f}
		},
		{
			{0.0546875f, -0.05859375f, 0.09375f},
			{0.07421875f, 0.068359375f, -0.03515625f},
			{0.099609375f, -0.025390625f, 0.0546875f}
		},
		{
			{0.109375f, 0.123046875f, -0.013671875f},
			{0.09375f, 0.00390625f, 0.037109375f},
			{0.072265625f, 0.068359375f, -0.041015625f}
		},
		{
			{0.08203125f, -0.0390625f, 0.00390625f},
			{-0.107421875f, -0.009765625f, -0.041015625f},
			{-0.1328125f, -0.14453125f, -0.09765625f}
		},
		{
			{0.0078125f, -0.00390625f, -0.0390625f},
			{0.017578125f, 0.013671875f, 0.068359375f},
			{0.130859375f, 0.03125f, 0.09765625f}
		},
		{
			{-0.037109375f, 0.056640625f, 0.033203125f},
			{0.03515625f, 0.015625f, -0.025390625f},
			{-0.037109375f, 0.02734375f, 0.029296875f}
		},
		{
			{0.033203125f, 0.01171875f, 0.138671875f},
			{0.109375f, -0.00390625f, 0.068359375f},
			{-0.076171875f, -0.0703125f, 0.046875f}
		},
		{
			{-0.076171875f, 0.046875f, 0.015625f},
			{0.068359375f, 0.0703125f, 0.099609375f},
			{-0.005859375f, 0.03125f, 0.044921875f}
		},
		{
			{-0.08203125f, -0.083984375f, -0.0546875f},
			{-0.05078125f, -0.095703125f, -0.013671875f},
			{0.0703125f, 0.033203125f, 0.00390625f}
		},
		{
			{0.048828125f, -0.037109375f, 0.08203125f},
			{0.044921875f, -0.03515625f, 0.01953125f},
			{-0.03125f, 0.013671875f, -0.048828125f}
		},
		{
			{-0.015625f, -0.0390625f, 0.00390625f},
			{-0.021484375f, -0.029296875f, 0.01953125f},
			{0.123046875f, 0.091796875f, 0.07421875f}
		},
		{
			{0.07421875f, 0.04296875f, 0.05859375f},
			{-0.03515625f, 0.033203125f, 0.03125f},
			{-0.013671875f, -0.029296875f, 0.06640625f}
		},
		{
			{0.02734375f, -0.041015625f, 0.068359375f},
			{0.115234375f, 0.0234375f, -0.0234375f},
			{-0.08203125f, 0.00390625f, -0.00390625f}
		},
		{
			{-0.029296875f, 0.05078125f, 0.125f},
			{-0.03125f, 0.0390625f, 0.072265625f},
			{-0.005859375f, -0.0390625f, 0.03125f}
		}
	},
	{
		{
			{-0.052734375f, 0.03515625f, -0.001953125f},
			{-0.001953125f, -0.06640625f, 0.02734375f},
			{0.064453125f, 0.03125f, -0.080078125f}
		},
		{
			{0.078125f, -0.01171875f, 0.1015625f},
			{0.005859375f, 0.06640625f, -0.09375f},
			{0.05859375f, -0.099609375f, -0.072265625f}
		},
		{
			{-0.068359375f, -0.095703125f, 0.017578125f},
			{0.01953125f, 0.029296875f, -0.0546875f},
			{0.083984375f, 0.064453125f, 0.029296875f}
		},
		{
			{-0.009765625f, 0.0234375f, 0.14453125f},
			{0.052734375f, 0.08203125f, -0.068359375f},
			{-0.0234375f, 0.009765625f, -0.17578125f}
		},
		{
			{-0.0f, 0.08984375f, 0.119140625f},
			{0.037109375f, -0.01953125f, -0.0546875f},
			{0.00390625f, -0.11328125f, -0.14453125f}
		},
		{
			{-0.0234375f, -0.115234375f, -0.017578125f},
			{0.02734375f, -0.048828125f, 0.013671875f},
			{0.044921875f, 0.02734375f, -0.048828125f}
		},
		{
			{-0.00390625f, 0.064453125f, 0.060546875f},
			{0.09375f, 0.0625f, 0.08203125f},
			{-0.0703125f, 0.06640625f, -0.021484375f}
		},
		{
			{-0.02734375f, 0.025390625f, 0.04296875f},
			{-0.1484375f, -0.15625f, -0.15234375f},
			{-0.0703125f, -0.037109375f, -0.0546875f}
		},
		{
			{-0.056640625f, 0.048828125f, -0.0625f},
			{0.00390625f, -0.0625f, -0.0625f},
			{-0.087890625f, -0.001953125f, 0.041015625f}
		},
		{
			{0.015625f, 0.16015625f, 0.193359375f},
			{-0.046875f, 0.00390625f, 0.078125f},
			{0.115234375f, -0.015625f, -0.017578125f}
		},
		{
			{0.107421875f, 0.0859375f, 0.076171875f},
			{-0.009765625f, 0.013671875f, -0.08203125f},
			{-0.1171875f, -0.138671875f, -0.14453125f}
		},
		{
			{-0.044921875f, -0.052734375f, -0.06640625f},
			{-0.052734375f, -0.189453125f, -0.12890625f},
			{-0.150390625f, -0.1328125f, -0.056640625f}
		},
		{
			{0.09765625f, 0.087890625f, -0.00390625f},
			{0.078125f, 0.033203125f, 0.013671875f},
			{0.00390625f, 0.0390625f, -0.060546875f}
		},
		{
			{0.07421875f, -0.05078125f, -0.0234375f},
			{-0.033203125f, -0.02734375f, -0.076171875f},
			{-0.025390625f, 0.083984375f, 0.0859375f}
		},
		{
			{0.046875f, 0.052734375f, -0.00390625f},
			{-0.0625f, 0.0546875f, 0.080078125f},
			{-0.017578125f, -0.0f, -0.076171875f}
		},
		{
			{0.0234375f, 0.0078125f, -0.072265625f},
			{-0.169921875f, 0.005859375f, 0.03125f},
			{-0.021484375f, 0.025390625f, 0.005859375f}
		}
	},
	{
		{
			{0.01171875f, 0.08203125f, 0.095703125f},
			{0.041015625f, -0.00390625f, -0.02734375f},
			{-0.025390625f, -0.060546875f, 0.068359375f}
		},
		{
			{0.05859375f, 0.099609375f, -0.013671875f},
			{0.080078125f, 0.095703125f, -0.078125f},
			{0.013671875f, 0.0234375f, -0.048828125f}
		},
		{
			{-0.064453125f, -0.09765625f, -0.16015625f},
			{-0.111328125f, -0.056640625f, 0.017578125f},
			{0.001953125f, -0.029296875f, 0.119140625f}
		},
		{
			{0.0625f, 0.0234375f, 0.0625f},
			{-0.052734375f, -0.009765625f, 0.076171875f},
			{0.017578125f, 0.009765625f, -0.103515625f}
		},
		{
			{0.046875f, -0.005859375f, 0.0859375f},
			{0.052734375f, -0.0078125f, 0.029296875f},
			{-0.0078125f, 0.021484375f, 0.044921875f}
		},
		{
			{0.013671875f, 0.00390625f, -0.095703125f},
			{0.068359375f, -0.03515625f, 0.0234375f},
			{0.041015625f, -0.03125f, -0.025390625f}
		},
		{
			{-0.087890625f, 0.009765625f, 0.048828125f},
			{-0.07421875f, 0.072265625f, 0.046875f},
			{-0.048828125f, -0.017578125f, 0.060546875f}
		},
		{
			{0.10546875f, 0.1171875f, -0.072265625f},
			{0.01953125f, 0.0625f, -0.119140625f},
			{0.072265625f, 0.04296875f, -0.0390625f}
		},
		{
			{0.109375f, 0.1015625f, -0.0234375f},
			{-0.017578125f, -0.111328125f, -0.05078125f},
			{0.056640625f, 0.021484375f, -0.056640625f}
		},
		{
			{-0.046875f, 0.083984375f, 0.064453125f},
			{0.005859375f, 0.060546875f, -0.044921875f},
			{0.060546875f, -0.005859375f, -0.02734375f}
		},
		{
			{0.091796875f, -0.0f, -0.0078125f},
			{0.033203125f, 0.087890625f, 0.083984375f},
			{0.05078125f, 0.046875f, -0.021484375f}
		},
		{
			{0.060546875f, -0.0234375f, -0.0859375f},
			{0.0625f, 0.001953125f, 0.0546875f},
			{0.04296875f, 0.0625f, 0.103515625f}
		},
		{
			{-0.033203125f, 0.0f, 0.013671875f},
			{0.0234375f, -0.029296875f, 0.11328125f},
			{-0.060546875f, 0.001953125f, -0.046875f}
		},
		{
			{0.044921875f, -0.076171875f, -0.12890625f},
			{0.119140625f, 0.056640625f, -0.033203125f},
			{0.037109375f, 0.0234375f, -0.1328125f}
		},
		{
			{0.015625f, -0.041015625f, -0.0390625f},
			{-0.0546875f, -0.064453125f, 0.044921875f},
			{0.01171875f, -0.029296875f, 0.0390625f}
		},
		{
			{0.107421875f, -0.0546875f, -0.02734375f},
			{-0.00390625f, 0.076171875f, 0.044921875f},
			{0.119140625f, 0.099609375f, 0.0234375f}
		}
	},
	{
		{
			{0.0859375f, 0.08984375f, -0.021484375f},
			{0.037109375f, 0.025390625f, 0.109375f},
			{0.046875f, 0.0390625f, -0.009765625f}
		},
		{
			{0.07421875f, 0.017578125f, 0.005859375f},
			{-0.0234375f, -0.099609375f, -0.015625f},
			{-0.04296875f, 0.0234375f, 0.03125f}
		},
		{
			{-0.025390625f, 0.03515625f, 0.013671875f},
			{0.048828125f, -0.015625f, -0.0f},
			{-0.056640625f, -0.01953125f, 0.041015625f}
		},
		{
			{0.013671875f, 0.046875f, 0.076171875f},
			{-0.0234375f, 0.0390625f, -0.015625f},
			{-0.056640625f, 0.09375f, 0.0703125f}
		},
		{
			{0.021484375f, 0.099609375f, -0.02734375f},
			{0.064453125f, -0.033203125f, -0.017578125f},
			{-0.033203125f, 0.095703125f, -0.01171875f}
		},
		{
			{-0.03515625f, -0.0078125f, 0.07421875f},
			{-0.01171875f, -0.015625f, -0.0234375f},
			{-0.09765625f, 0.02734375f, 0.005859375f}
		},
		{
			{0.056640625f, -0.037109375f, -0.0234375f},
			{0.044921875f, -0.00390625f, 0.052734375f},
			{-0.03515625f, -0.0234375f, -0.021484375f}
		},
		{
			{-0.044921875f, 0.0078125f, -0.01171875f},
			{-0.056640625f, 0.0390625f, -0.07421875f},
			{-0.009765625f, 0.072265625f, 0.044921875f}
		},
		{
			{-0.044921875f, 0.044921875f, -0.04296875f},
			{0.087890625f, -0.021484375f, 0.076171875f},
			{-0.0078125f, 0.0625f, -0.015625f}
		},
		{
			{0.021484375f, -0.087890625f, -0.001953125f},
			{-0.017578125f, -0.041015625f, 0.05078125f},
			{-0.044921875f, -0.099609375f, -0.091796875f}
		},
		{
			{0.009765625f, -0.017578125f, 0.119140625f},
			{0.001953125f, -0.06640625f, 0.025390625f},
			{0.064453125f, 0.0703125f, -0.009765625f}
		},
		{
			{0.12109375f, 0.0703125f, 0.08984375f},
			{-0.013671875f, 0.12109375f, 0.12109375f},
			{0.068359375f, 0.091796875f, 0.056640625f}
		},
		{
			{-0.0390625f, -0.009765625f, -0.03515625f},
			{-0.0078125f, 0.02734375f, -0.03515625f},
			{0.044921875f, -0.041015625f, -0.056640625f}
		},
		{
			{0.02734375f, -0.015625f, -0.107421875f},
			{-0.06640625f, 0.03125f, -0.0234375f},
			{-0.048828125f, 0.04296875f, -0.046875f}
		},
		{
			{0.0390625f, -0.017578125f, -0.080078125f},
			{0.01953125f, -0.03515625f, -0.05078125f},
			{0.00390625f, -0.03125f, -0.03125f}
		},
		{
			{-0.033203125f, 0.02734375f, 0.0703125f},
			{-0.01953125f, 0.04296875f, 0.01953125f},
			{0.08203125f, -0.03515625f, 0.048828125f}
		}
	}
};

// CONV2_BIAS shape=(32,)
#define CONV2_BIAS_DIM0 32
static const fixed_t CONV2_BIAS[32] = {0.03515625f, 0.080078125f, -0.001953125f, 0.05078125f, 0.02734375f, 0.068359375f, -0.0078125f, -0.015625f, -0.009765625f, -0.013671875f, 0.08203125f, -0.060546875f, 0.06640625f, -0.052734375f, -0.017578125f, 0.017578125f, 0.08203125f, 0.08203125f, -0.005859375f, 0.078125f, 0.013671875f, -0.005859375f, -0.05078125f, 0.0703125f, -0.046875f, -0.00390625f, -0.05859375f, -0.052734375f, 0.0625f, 0.08203125f, -0.025390625f, 0.03515625f};

// CONV3_WEIGHT shape=(32, 32, 3, 3)
#define CONV3_WEIGHT_DIM0 32
#define CONV3_WEIGHT_DIM1 32
#define CONV3_WEIGHT_DIM2 3
#define CONV3_WEIGHT_DIM3 3
static const fixed_t CONV3_WEIGHT[32][32][3][3] = {
	{
		{
			{0.05859375f, 0.0390625f, 0.0078125f},
			{0.037109375f, 0.0234375f, -0.068359375f},
			{-0.009765625f, -0.0703125f, -0.017578125f}
		},
		{
			{0.111328125f, 0.013671875f, -0.07421875f},
			{0.05859375f, -0.0546875f, -0.07421875f},
			{-0.013671875f, -0.029296875f, 0.021484375f}
		},
		{
			{-0.103515625f, -0.001953125f, -0.02734375f},
			{0.01171875f, -0.025390625f, -0.013671875f},
			{-0.060546875f, 0.001953125f, 0.01171875f}
		},
		{
			{0.08984375f, 0.03515625f, 0.033203125f},
			{0.015625f, 0.0234375f, -0.087890625f},
			{0.0234375f, 0.0390625f, -0.017578125f}
		},
		{
			{-0.126953125f, -0.134765625f, -0.044921875f},
			{-0.103515625f, -0.134765625f, -0.115234375f},
			{-0.080078125f, -0.025390625f, 0.072265625f}
		},
		{
			{-0.01171875f, 0.0234375f, -0.138671875f},
			{0.0625f, -0.021484375f, -0.078125f},
			{-0.029296875f, -0.05078125f, 0.041015625f}
		},
		{
			{-0.033203125f, -0.04296875f, 0.037109375f},
			{-0.107421875f, -0.017578125f, 0.08984375f},
			{-0.0390625f, -0.041015625f, -0.017578125f}
		},
		{
			{0.00390625f, -0.078125f, -0.126953125f},
			{-0.005859375f, -0.060546875f, -0.025390625f},
			{0.015625f, 0.02734375f, 0.009765625f}
		},
		{
			{0.03125f, -0.013671875f, -0.029296875f},
			{0.02734375f, 0.0234375f, -0.08203125f},
			{0.046875f, -0.01953125f, -0.083984375f}
		},
		{
			{0.037109375f, 0.1484375f, 0.12890625f},
			{0.119140625f, 0.197265625f, 0.123046875f},
			{0.16796875f, 0.10546875f, 0.017578125f}
		},
		{
			{0.0703125f, 0.095703125f, 0.041015625f},
			{0.025390625f, 0.060546875f, 0.052734375f},
			{-0.05859375f, -0.068359375f, -0.001953125f}
		},
		{
			{-0.169921875f, -0.111328125f, -0.140625f},
			{-0.04296875f, -0.083984375f, -0.005859375f},
			{0.01171875f, 0.037109375f, 0.0703125f}
		},
		{
			{-0.037109375f, 0.08203125f, 0.044921875f},
			{0.0f, 0.001953125f, 0.005859375f},
			{0.076171875f, 0.04296875f, 0.01171875f}
		},
		{
			{0.015625f, -0.03125f, -0.001953125f},
			{-0.064453125f, -0.041015625f, -0.111328125f},
			{-0.060546875f, -0.056640625f, -0.037109375f}
		},
		{
			{0.08984375f, -0.009765625f, -0.103515625f},
			{-0.07421875f, -0.109375f, -0.09765625f},
			{-0.021484375f, -0.08203125f, 0.005859375f}
		},
		{
			{0.0078125f, 0.056640625f, 0.11328125f},
			{-0.01953125f, 0.056640625f, -0.037109375f},
			{-0.064453125f, 0.02734375f, -0.064453125f}
		},
		{
			{-0.01953125f, 0.013671875f, -0.009765625f},
			{0.052734375f, 0.03515625f, 0.15234375f},
			{0.05859375f, 0.11328125f, 0.1328125f}
		},
		{
			{-0.0546875f, 0.03515625f, 0.03125f},
			{-0.021484375f, 0.0390625f, 0.048828125f},
			{0.02734375f, 0.06640625f, 0.015625f}
		},
		{
			{0.009765625f, 0.078125f, 0.076171875f},
			{-0.001953125f, 0.130859375f, 0.07421875f},
			{0.0703125f, 0.109375f, -0.009765625f}
		},
		{
			{-0.119140625f, -0.021484375f, -0.01171875f},
			{-0.052734375f, -0.025390625f, -0.072265625f},
			{-0.0625f, 0.021484375f, 0.048828125f}
		},
		{
			{-0.037109375f, -0.01953125f, 0.056640625f},
			{-0.107421875f, -0.115234375f, -0.02734375f},
			{-0.1015625f, -0.052734375f, -0.029296875f}
		},
		{
			{0.091796875f, 0.12109375f, 0.138671875f},
			{0.01171875f, 0.01953125f, -0.015625f},
			{-0.021484375f, -0.013671875f, -0.0078125f}
		},
		{
			{-0.033203125f, -0.0234375f, -0.0859375f},
			{0.0f, -0.0546875f, -0.021484375f},
			{0.0625f, -0.025390625f, -0.013671875f}
		},
		{
			{0.021484375f, -0.12109375f, -0.11328125f},
			{-0.078125f, -0.12109375f, -0.1640625f},
			{0.02734375f, -0.041015625f, -0.078125f}
		},
		{
			{0.052734375f, -0.07421875f, -0.078125f},
			{-0.021484375f, -0.05078125f, 0.0f},
			{-0.09765625f, -0.10546875f, -0.076171875f}
		},
		{
			{0.041015625f, 0.01171875f, 0.017578125f},
			{0.0f, -0.009765625f, -0.037109375f},
			{0.056640625f, 0.064453125f, 0.041015625f}
		},
		{
			{-0.09375f, -0.060546875f, 0.09375f},
			{-0.13671875f, -0.123046875f, -0.04296875f},
			{-0.109375f, -0.13671875f, -0.173828125f}
		},
		{
			{-0.072265625f, -0.087890625f, -0.03125f},
			{-0.10546875f, -0.150390625f, -0.0703125f},
			{-0.060546875f, -0.0234375f, 0.044921875f}
		},
		{
			{-0.03125f, 0.01953125f, 0.01953125f},
			{-0.125f, -0.044921875f, -0.05859375f},
			{-0.083984375f, -0.12890625f, -0.09765625f}
		},
		{
			{-0.09765625f, 0.03125f, 0.03125f},
			{-0.015625f, 0.0234375f, -0.0390625f},
			{-0.119140625f, -0.044921875f, 0.021484375f}
		},
		{
			{0.0234375f, 0.091796875f, 0.046875f},
			{0.068359375f, 0.103515625f, 0.068359375f},
			{0.076171875f, 0.052734375f, 0.041015625f}
		},
		{
			{0.052734375f, 0.001953125f, 0.0f},
			{0.072265625f, 0.021484375f, -0.01171875f},
			{0.078125f, 0.044921875f, 0.068359375f}
		}
	},
	{
		{
			{0.025390625f, -0.0390625f, -0.046875f},
			{-0.044921875f, -0.060546875f, -0.013671875f},
			{0.001953125f, -0.03125f, 0.0f}
		},
		{
			{0.033203125f, -0.046875f, -0.015625f},
			{-0.05078125f, 0.005859375f, -0.0234375f},
			{-0.052734375f, -0.021484375f, -0.05078125f}
		},
		{
			{-0.033203125f, -0.048828125f, -0.044921875f},
			{0.005859375f, 0.02734375f, 0.033203125f},
			{-0.025390625f, -0.0546875f, -0.01953125f}
		},
		{
			{-0.01171875f, -0.02734375f, 0.0078125f},
			{-0.029296875f, 0.0546875f, 0.015625f},
			{-0.0390625f, 0.017578125f, -0.05078125f}
		},
		{
			{0.009765625f, -0.025390625f, 0.02734375f},
			{0.03125f, -0.025390625f, -0.00390625f},
			{0.01953125f, -0.056640625f, -0.013671875f}
		},
		{
			{-0.05859375f, -0.00390625f, -0.046875f},
			{0.03515625f, -0.009765625f, -0.05078125f},
			{0.013671875f, 0.01953125f, -0.00390625f}
		},
		{
			{-0.044921875f, -0.05859375f, 0.0f},
			{-0.056640625f, -0.025390625f, -0.03515625f},
			{-0.001953125f, -0.029296875f, 0.048828125f}
		},
		{
			{-0.0390625f, 0.0234375f, -0.056640625f},
			{-0.046875f, -0.005859375f, 0.037109375f},
			{-0.05078125f, -0.01171875f, -0.05859375f}
		},
		{
			{-0.046875f, 0.05078125f, 0.029296875f},
			{0.029296875f, -0.048828125f, 0.0390625f},
			{-0.05078125f, 0.025390625f, -0.021484375f}
		},
		{
			{-0.0078125f, 0.005859375f, -0.046875f},
			{0.046875f, -0.025390625f, -0.009765625f},
			{-0.009765625f, 0.00390625f, -0.017578125f}
		},
		{
			{0.0078125f, -0.001953125f, -0.0390625f},
			{0.037109375f, 0.00390625f, -0.00390625f},
			{0.05078125f, -0.04296875f, 0.033203125f}
		},
		{
			{-0.056640625f, -0.05078125f, 0.044921875f},
			{-0.01171875f, -0.0234375f, -0.0078125f},
			{-0.001953125f, 0.046875f, 0.015625f}
		},
		{
			{-0.056640625f, 0.021484375f, -0.021484375f},
			{-0.01953125f, -0.03515625f, -0.044921875f},
			{-0.009765625f, 0.017578125f, 0.009765625f}
		},
		{
			{0.017578125f, 0.001953125f, 0.056640625f},
			{-0.005859375f, 0.0390625f, -0.03515625f},
			{-0.056640625f, -0.0078125f, 0.033203125f}
		},
		{
			{0.00390625f, -0.013671875f, 0.05078125f},
			{-0.0234375f, 0.02734375f, 0.00390625f},
			{-0.013671875f, 0.001953125f, 0.048828125f}
		},
		{
			{-0.02734375f, -0.0234375f, -0.00390625f},
			{0.04296875f, -0.037109375f, 0.009765625f},
			{-0.017578125f, -0.041015625f, 0.015625f}
		},
		{
			{-0.044921875f, 0.03515625f, -0.05078125f},
			{0.0078125f, -0.009765625f, 0.021484375f},
			{-0.02734375f, 0.03125f, 0.03515625f}
		},
		{
			{0.0078125f, 0.02734375f, -0.0546875f},
			{0.01953125f, -0.0546875f, -0.0234375f},
			{-0.0390625f, 0.02734375f, -0.021484375f}
		},
		{
			{-0.0078125f, -0.03125f, -0.048828125f},
			{-0.015625f, -0.009765625f, 0.037109375f},
			{-0.0078125f, -0.0625f, 0.03515625f}
		},
		{
			{-0.060546875f, 0.048828125f, -0.009765625f},
			{-0.01171875f, -0.044921875f, -0.048828125f},
			{-0.05859375f, 0.0078125f, -0.060546875f}
		},
		{
			{0.05078125f, 0.0078125f, -0.02734375f},
			{-0.013671875f, -0.02734375f, 0.00390625f},
			{0.029296875f, -0.0390625f, -0.017578125f}
		},
		{
			{-0.01953125f, 0.005859375f, -0.02734375f},
			{0.021484375f, -0.044921875f, 0.001953125f},
			{-0.02734375f, -0.029296875f, 0.0078125f}
		},
		{
			{-0.0390625f, -0.037109375f, 0.021484375f},
			{0.04296875f, -0.0546875f, 0.025390625f},
			{-0.048828125f, -0.04296875f, -0.02734375f}
		},
		{
			{0.0f, -0.04296875f, -0.052734375f},
			{0.0234375f, -0.02734375f, 0.03515625f},
			{-0.021484375f, -0.037109375f, 0.025390625f}
		},
		{
			{-0.0546875f, -0.013671875f, -0.03515625f},
			{-0.0234375f, -0.009765625f, -0.009765625f},
			{-0.015625f, 0.017578125f, -0.009765625f}
		},
		{
			{0.044921875f, -0.005859375f, -0.00390625f},
			{-0.052734375f, -0.00390625f, -0.048828125f},
			{-0.025390625f, -0.0546875f, -0.021484375f}
		},
		{
			{-0.02734375f, 0.013671875f, -0.021484375f},
			{0.037109375f, 0.005859375f, -0.005859375f},
			{-0.03515625f, 0.02734375f, -0.046875f}
		},
		{
			{0.013671875f, -0.029296875f, -0.0546875f},
			{-0.0390625f, -0.01953125f, -0.017578125f},
			{-0.0625f, 0.0078125f, -0.0078125f}
		},
		{
			{0.015625f, -0.060546875f, -0.009765625f},
			{-0.060546875f, -0.015625f, -0.01171875f},
			{0.013671875f, -0.02734375f, 0.0078125f}
		},
		{
			{0.01953125f, 0.037109375f, -0.033203125f},
			{0.048828125f, 0.015625f, -0.0078125f},
			{-0.01171875f, 0.025390625f, -0.009765625f}
		},
		{
			{0.025390625f, -0.03125f, -0.00390625f},
			{-0.00390625f, 0.03125f, -0.015625f},
			{-0.0078125f, -0.04296875f, 0.00390625f}
		},
		{
			{-0.00390625f, -0.025390625f, -0.064453125f},
			{0.037109375f, -0.05078125f, 0.048828125f},
			{0.05078125f, 0.041015625f, 0.001953125f}
		}
	},
	{
		{
			{-0.072265625f, -0.109375f, -0.04296875f},
			{-0.015625f, 0.009765625f, -0.013671875f},
			{-0.0390625f, -0.0078125f, -0.01953125f}
		},
		{
			{-0.021484375f, -0.068359375f, -0.068359375f},
			{0.041015625f, 0.0078125f, 0.080078125f},
			{0.08984375f, 0.072265625f, 0.111328125f}
		},
		{
			{-0.0390625f, 0.080078125f, 0.013671875f},
			{-0.001953125f, -0.009765625f, 0.001953125f},
			{-0.037109375f, -0.099609375f, -0.091796875f}
		},
		{
			{-0.041015625f, -0.001953125f, -0.0234375f},
			{0.017578125f, 0.0390625f, 0.1015625f},
			{-0.009765625f, 0.072265625f, 0.068359375f}
		},
		{
			{-0.037109375f, 0.00390625f, -0.02734375f},
			{0.03125f, 0.0859375f, 0.08984375f},
			{0.083984375f, 0.029296875f, 0.02734375f}
		},
		{
			{-0.08984375f, -0.0625f, 0.005859375f},
			{-0.001953125f, -0.0234375f, 0.033203125f},
			{-0.0390625f, -0.0390625f, 0.0546875f}
		},
		{
			{0.068359375f, 0.09375f, 0.06640625f},
			{0.064453125f, 0.037109375f, 0.0078125f},
			{-0.0546875f, -0.095703125f, -0.015625f}
		},
		{
			{-0.04296875f, 0.021484375f, -0.01171875f},
			{0.041015625f, -0.0078125f, 0.005859375f},
			{-0.060546875f, -0.0546875f, -0.044921875f}
		},
		{
			{-0.0703125f, -0.10546875f, -0.052734375f},
			{-0.072265625f, -0.09375f, -0.064453125f},
			{-0.080078125f, -0.05078125f, -0.029296875f}
		},
		{
			{0.103515625f, -0.1015625f, -0.111328125f},
			{-0.04296875f, -0.25f, -0.107421875f},
			{-0.109375f, -0.166015625f, -0.134765625f}
		},
		{
			{-0.025390625f, -0.0703125f, -0.078125f},
			{-0.0625f, -0.0703125f, 0.01171875f},
			{-0.009765625f, -0.046875f, 0.0f}
		},
		{
			{0.001953125f, -0.00390625f, 0.068359375f},
			{0.0859375f, 0.09765625f, 0.02734375f},
			{0.103515625f, 0.08203125f, 0.04296875f}
		},
		{
			{0.017578125f, -0.025390625f, -0.0546875f},
			{-0.0234375f, 0.080078125f, 0.046875f},
			{0.0390625f, 0.01171875f, 0.115234375f}
		},
		{
			{-0.095703125f, -0.0078125f, -0.03515625f},
			{0.04296875f, 0.033203125f, 0.095703125f},
			{0.09375f, 0.103515625f, 0.068359375f}
		},
		{
			{-0.01171875f, 0.048828125f, -0.0f},
			{-0.05859375f, -0.013671875f, 0.072265625f},
			{-0.037109375f, -0.068359375f, -0.052734375f}
		},
		{
			{0.033203125f, -0.03515625f, -0.126953125f},
			{0.005859375f, 0.064453125f, 0.04296875f},
			{0.091796875f, 0.08984375f, 0.0859375f}
		},
		{
			{0.029296875f, -0.052734375f, 0.005859375f},
			{-0.08984375f, -0.103515625f, -0.0625f},
			{-0.134765625f, -0.02734375f, 0.0390625f}
		},
		{
			{0.037109375f, -0.03125f, -0.05078125f},
			{-0.025390625f, 0.017578125f, 0.009765625f},
			{0.087890625f, -0.001953125f, 0.0859375f}
		},
		{
			{0.017578125f, -0.056640625f, 0.005859375f},
			{-0.01953125f, -0.060546875f, -0.130859375f},
			{-0.046875f, -0.060546875f, 0.01953125f}
		},
		{
			{0.0234375f, -0.02734375f, 0.068359375f},
			{-0.029296875f, 0.041015625f, -0.005859375f},
			{0.0234375f, 0.01953125f, -0.03515625f}
		},
		{
			{-0.068359375f, -0.02734375f, -0.087890625f},
			{0.0390625f, 0.029296875f, 0.01953125f},
			{0.0546875f, -0.013671875f, -0.0078125f}
		},
		{
			{-0.0078125f, -0.09765625f, -0.044921875f},
			{-0.083984375f, -0.029296875f, -0.037109375f},
			{0.005859375f, -0.076171875f, -0.01171875f}
		},
		{
			{-0.017578125f, -0.021484375f, 0.0234375f},
			{0.00390625f, 0.017578125f, -0.00390625f},
			{0.025390625f, -0.056640625f, 0.04296875f}
		},
		{
			{-0.11328125f, -0.109375f, -0.1015625f},
			{-0.03515625f, 0.01171875f, 0.0078125f},
			{0.0390625f, 0.12109375f, 0.1015625f}
		},
		{
			{-0.033203125f, -0.013671875f, -0.044921875f},
			{0.009765625f, 0.03125f, 0.00390625f},
			{-0.005859375f, -0.0703125f, -0.099609375f}
		},
		{
			{-0.080078125f, -0.06640625f, -0.09765625f},
			{-0.02734375f, -0.033203125f, 0.01953125f},
			{0.037109375f, -0.001953125f, 0.015625f}
		},
		{
			{-0.041015625f, -0.0859375f, -0.166015625f},
			{0.009765625f, 0.009765625f, -0.05078125f},
			{0.041015625f, 0.078125f, 0.060546875f}
		},
		{
			{-0.033203125f, -0.01953125f, -0.01171875f},
			{-0.083984375f, -0.01171875f, 0.013671875f},
			{0.064453125f, 0.072265625f, 0.072265625f}
		},
		{
			{-0.03125f, -0.109375f, -0.046875f},
			{-0.0703125f, -0.01171875f, -0.05078125f},
			{0.009765625f, 0.095703125f, 0.060546875f}
		},
		{
			{0.017578125f, 0.05859375f, -0.01953125f},
			{-0.083984375f, -0.068359375f, -0.021484375f},
			{-0.0234375f, 0.005859375f, -0.0390625f}
		},
		{
			{0.05859375f, -0.00390625f, -0.087890625f},
			{-0.025390625f, -0.107421875f, -0.0546875f},
			{0.052734375f, -0.00390625f, 0.00390625f}
		},
		{
			{0.00390625f, 0.04296875f, 0.017578125f},
			{-0.009765625f, 0.01953125f, 0.1015625f},
			{0.060546875f, 0.091796875f, 0.013671875f}
		}
	},
	{
		{
			{-0.001953125f, -0.015625f, -0.001953125f},
			{-0.001953125f, 0.005859375f, -0.080078125f},
			{0.001953125f, 0.029296875f, -0.060546875f}
		},
		{
			{-0.064453125f, -0.07421875f, -0.125f},
			{0.015625f, -0.04296875f, -0.140625f},
			{-0.037109375f, -0.025390625f, -0.021484375f}
		},
		{
			{0.01171875f, -0.03125f, -0.03515625f},
			{0.001953125f, 0.06640625f, 0.083984375f},
			{0.009765625f, 0.03515625f, -0.025390625f}
		},
		{
			{-0.017578125f, -0.015625f, -0.095703125f},
			{-0.001953125f, 0.00390625f, 0.044921875f},
			{0.087890625f, 0.037109375f, 0.056640625f}
		},
		{
			{-0.00390625f, 0.005859375f, -0.01953125f},
			{-0.0625f, 0.013671875f, -0.04296875f},
			{0.029296875f, 0.09375f, 0.060546875f}
		},
		{
			{-0.0625f, -0.083984375f, -0.138671875f},
			{0.01953125f, -0.068359375f, -0.03125f},
			{0.06640625f, 0.0078125f, 0.046875f}
		},
		{
			{0.0078125f, -0.0078125f, 0.0703125f},
			{0.076171875f, 0.08203125f, 0.0859375f},
			{-0.029296875f, -0.03125f, 0.03515625f}
		},
		{
			{0.0234375f, 0.0f, -0.078125f},
			{0.0703125f, 0.025390625f, 0.001953125f},
			{0.001953125f, 0.109375f, 0.009765625f}
		},
		{
			{-0.00390625f, -0.029296875f, -0.125f},
			{-0.04296875f, -0.0703125f, -0.0390625f},
			{-0.033203125f, -0.025390625f, 0.013671875f}
		},
		{
			{-0.169921875f, -0.052734375f, -0.142578125f},
			{-0.18359375f, -0.021484375f, -0.06640625f},
			{-0.134765625f, -0.064453125f, 0.005859375f}
		},
		{
			{0.001953125f, -0.01953125f, 0.017578125f},
			{-0.02734375f, -0.00390625f, -0.0546875f},
			{-0.029296875f, -0.072265625f, -0.04296875f}
		},
		{
			{-0.03125f, -0.04296875f, -0.046875f},
			{0.009765625f, 0.05078125f, 0.083984375f},
			{0.00390625f, 0.037109375f, 0.048828125f}
		},
		{
			{-0.111328125f, -0.0546875f, -0.12890625f},
			{-0.080078125f, -0.109375f, -0.095703125f},
			{-0.119140625f, 0.037109375f, 0.080078125f}
		},
		{
			{-0.09765625f, -0.064453125f, -0.111328125f},
			{0.009765625f, -0.037109375f, -0.044921875f},
			{0.0234375f, -0.017578125f, 0.009765625f}
		},
		{
			{0.0390625f, 0.033203125f, -0.078125f},
			{0.19140625f, 0.12890625f, 0.02734375f},
			{0.162109375f, 0.146484375f, 0.076171875f}
		},
		{
			{-0.09765625f, -0.009765625f, 0.01953125f},
			{-0.021484375f, -0.0078125f, -0.064453125f},
			{-0.0546875f, -0.046875f, -0.01953125f}
		},
		{
			{-0.05078125f, -0.130859375f, -0.138671875f},
			{-0.138671875f, -0.0390625f, 0.041015625f},
			{-0.048828125f, 0.0234375f, 0.076171875f}
		},
		{
			{-0.04296875f, -0.01171875f, -0.052734375f},
			{-0.115234375f, 0.01171875f, 0.005859375f},
			{-0.09375f, 0.068359375f, 0.05078125f}
		},
		{
			{-0.0625f, 0.056640625f, 0.083984375f},
			{-0.0625f, 0.03515625f, 0.09765625f},
			{-0.037109375f, 0.044921875f, 0.060546875f}
		},
		{
			{0.041015625f, 0.06640625f, 0.05078125f},
			{-0.005859375f, 0.060546875f, 0.033203125f},
			{0.048828125f, -0.0546875f, 0.03515625f}
		},
		{
			{-0.0234375f, 0.02734375f, -0.009765625f},
			{-0.037109375f, 0.02734375f, 0.009765625f},
			{-0.013671875f, -0.080078125f, -0.08984375f}
		},
		{
			{-0.1171875f, -0.08203125f, -0.150390625f},
			{-0.052734375f, -0.068359375f, -0.162109375f},
			{0.080078125f, -0.033203125f, -0.1015625f}
		},
		{
			{-0.021484375f, -0.00390625f, 0.015625f},
			{0.048828125f, 0.095703125f, 0.041015625f},
			{0.068359375f, 0.046875f, 0.0234375f}
		},
		{
			{0.04296875f, -0.033203125f, -0.126953125f},
			{-0.052734375f, -0.115234375f, -0.083984375f},
			{-0.044921875f, -0.0546875f, -0.06640625f}
		},
		{
			{0.017578125f, 0.041015625f, 0.0078125f},
			{0.041015625f, -0.044921875f, 0.005859375f},
			{-0.0390625f, -0.013671875f, -0.052734375f}
		},
		{
			{-0.025390625f, -0.0234375f, -0.130859375f},
			{-0.078125f, -0.08984375f, -0.09765625f},
			{0.046875f, 0.0390625f, 0.00390625f}
		},
		{
			{-0.021484375f, -0.03515625f, -0.06640625f},
			{-0.0390625f, 0.009765625f, 0.017578125f},
			{-0.021484375f, 0.001953125f, 0.013671875f}
		},
		{
			{-0.013671875f, 0.021484375f, -0.02734375f},
			{-0.072265625f, -0.037109375f, -0.0546875f},
			{-0.064453125f, -0.03125f, -0.072265625f}
		},
		{
			{-0.060546875f, -0.01171875f, -0.06640625f},
			{-0.080078125f, -0.029296875f, -0.029296875f},
			{-0.0625f, -0.068359375f, -0.03515625f}
		},
		{
			{0.009765625f, 0.05859375f, 0.00390625f},
			{0.025390625f, 0.00390625f, -0.044921875f},
			{-0.052734375f, 0.015625f, 0.01953125f}
		},
		{
			{-0.05859375f, -0.046875f, -0.076171875f},
			{-0.0625f, 0.03125f, -0.009765625f},
			{-0.099609375f, 0.029296875f, -0.005859375f}
		},
		{
			{-0.087890625f, -0.05859375f, -0.083984375f},
			{0.033203125f, -0.009765625f, 0.048828125f},
			{-0.005859375f, 0.02734375f, 0.11328125f}
		}
	},
	{
		{
			{0.080078125f, 0.07421875f, 0.0625f},
			{-0.001953125f, -0.017578125f, 0.013671875f},
			{0.03125f, 0.013671875f, 0.021484375f}
		},
		{
			{0.06640625f, -0.041015625f, 0.041015625f},
			{0.05859375f, 0.056640625f, 0.009765625f},
			{0.025390625f, -0.025390625f, 0.0234375f}
		},
		{
			{-0.072265625f, -0.0859375f, -0.009765625f},
			{-0.037109375f, -0.029296875f, -0.009765625f},
			{-0.0703125f, -0.001953125f, -0.001953125f}
		},
		{
			{-0.048828125f, -0.001953125f, -0.0546875f},
			{-0.00390625f, -0.029296875f, 0.037109375f},
			{0.02734375f, 0.01953125f, -0.015625f}
		},
		{
			{-0.0390625f, -0.068359375f, -0.03515625f},
			{0.001953125f, -0.013671875f, 0.0390625f},
			{-0.078125f, 0.02734375f, 0.025390625f}
		},
		{
			{-0.009765625f, 0.0546875f, 0.009765625f},
			{0.02734375f, -0.05078125f, 0.0f},
			{0.03125f, -0.0390625f, 0.015625f}
		},
		{
			{-0.09375f, -0.10546875f, -0.08984375f},
			{-0.001953125f, -0.068359375f, -0.05078125f},
			{-0.08984375f, -0.078125f, -0.048828125f}
		},
		{
			{-0.02734375f, 0.04296875f, 0.013671875f},
			{0.025390625f, 0.025390625f, 0.03515625f},
			{0.037109375f, -0.009765625f, -0.02734375f}
		},
		{
			{0.09765625f, 0.11328125f, 0.029296875f},
			{0.09375f, 0.0546875f, 0.0f},
			{0.0078125f, -0.017578125f, 0.04296875f}
		},
		{
			{0.05078125f, 0.11328125f, 0.044921875f},
			{0.078125f, 0.05078125f, 0.080078125f},
			{0.046875f, 0.068359375f, 0.021484375f}
		},
		{
			{0.009765625f, 0.025390625f, -0.0703125f},
			{-0.076171875f, 0.013671875f, -0.072265625f},
			{-0.09375f, -0.052734375f, -0.08203125f}
		},
		{
			{-0.08984375f, -0.107421875f, -0.037109375f},
			{-0.08203125f, -0.005859375f, -0.080078125f},
			{-0.015625f, -0.072265625f, 0.037109375f}
		},
		{
			{-0.001953125f, 0.046875f, -0.00390625f},
			{0.05859375f, -0.009765625f, -0.01171875f},
			{-0.0234375f, 0.0625f, -0.013671875f}
		},
		{
			{-0.0625f, 0.001953125f, -0.068359375f},
			{0.017578125f, -0.025390625f, -0.044921875f},
			{0.001953125f, -0.001953125f, -0.037109375f}
		},
		{
			{0.009765625f, -0.017578125f, -0.01953125f},
			{0.021484375f, 0.021484375f, 0.0234375f},
			{-0.017578125f, 0.02734375f, -0.044921875f}
		},
		{
			{-0.017578125f, 0.0234375f, 0.04296875f},
			{0.037109375f, -0.05078125f, 0.052734375f},
			{0.025390625f, 0.04296875f, -0.046875f}
		},
		{
			{0.0078125f, 0.05859375f, 0.15234375f},
			{0.0859375f, 0.068359375f, 0.08203125f},
			{0.099609375f, 0.13671875f, 0.033203125f}
		},
		{
			{0.041015625f, -0.044921875f, 0.02734375f},
			{0.009765625f, 0.04296875f, -0.009765625f},
			{-0.072265625f, -0.005859375f, 0.009765625f}
		},
		{
			{-0.033203125f, -0.005859375f, 0.091796875f},
			{-0.001953125f, 0.01953125f, 0.01171875f},
			{-0.025390625f, 0.083984375f, 0.0546875f}
		},
		{
			{-0.05859375f, -0.041015625f, -0.0546875f},
			{-0.068359375f, 0.029296875f, -0.072265625f},
			{0.005859375f, -0.041015625f, 0.017578125f}
		},
		{
			{-0.04296875f, 0.04296875f, 0.009765625f},
			{0.033203125f, -0.021484375f, 0.03125f},
			{-0.02734375f, -0.044921875f, -0.041015625f}
		},
		{
			{-0.07421875f, -0.06640625f, -0.04296875f},
			{-0.03125f, -0.10546875f, -0.076171875f},
			{-0.109375f, -0.05859375f, -0.001953125f}
		},
		{
			{-0.046875f, -0.025390625f, -0.05078125f},
			{-0.041015625f, -0.033203125f, 0.0546875f},
			{0.052734375f, 0.060546875f, -0.03515625f}
		},
		{
			{-0.017578125f, -0.00390625f, 0.076171875f},
			{-0.005859375f, 0.048828125f, 0.009765625f},
			{0.01953125f, 0.03515625f, 0.05078125f}
		},
		{
